//Numpy array shape [784, 64]
//Min -0.588714599609
//Max 0.386840820312
//Number of zeros 28

#ifndef W3_H_
#define W3_H_

#ifndef __SYNTHESIS__
h_dense_weight_t w3[50176];
#else
h_dense_weight_t w3[50176] = {0.0341796875, -0.0024337769, 0.0600585938, 0.0177001953, 0.0404052734, -0.0156860352, -0.0749511719, -0.0522460938, -0.0634765625, -0.0082702637, -0.0793457031, 0.0583496094, 0.0776367188, -0.0727539062, 0.0446777344, 0.0423583984, -0.0301513672, 0.0534667969, 0.0119018555, 0.0656738281, -0.0820312500, -0.0095214844, -0.0434570312, 0.0061340332, 0.0393066406, 0.0255126953, 0.0756835938, -0.0367431641, 0.0480957031, 0.0541992188, 0.0378417969, -0.0139160156, 0.0476074219, 0.0490722656, 0.0319824219, 0.0434570312, 0.0352783203, 0.0642089844, -0.0145263672, 0.0028076172, 0.0162353516, -0.0036926270, 0.0012474060, 0.0769042969, -0.0073852539, -0.0541992188, 0.0008811951, 0.0544433594, 0.0749511719, 0.0110473633, -0.0038146973, 0.0377197266, -0.0341796875, 0.0202026367, 0.0223388672, 0.0085754395, 0.0284423828, -0.0515136719, 0.0708007812, 0.0290527344, -0.0419921875, -0.0737304688, 0.0274658203, 0.0191040039, -0.0778808594, 0.0581054688, 0.0383300781, 0.0363769531, -0.0605468750, 0.0073242188, 0.0011787415, -0.0244140625, 0.0566406250, -0.0695800781, -0.0068969727, -0.0297851562, 0.0476074219, 0.0478515625, -0.0257568359, -0.0040893555, -0.0101623535, -0.0771484375, 0.0396728516, -0.0705566406, -0.0573730469, 0.0384521484, -0.0038604736, 0.0466308594, -0.0800781250, 0.0053405762, 0.0678710938, 0.0717773438, 0.0617675781, 0.0316162109, 0.0556640625, 0.0681152344, -0.0795898438, 0.0093383789, 0.0483398438, -0.0632324219, 0.0820312500, -0.0131225586, 0.0252685547, -0.0524902344, 0.0764160156, 0.0700683594, 0.0571289062, 0.0208129883, 0.0832519531, 0.0541992188, 0.0034942627, 0.0008049011, -0.0006618500, -0.0026855469, 0.0209960938, -0.0539550781, -0.0417480469, 0.0167846680, 0.0242919922, -0.0527343750, 0.0571289062, -0.0104980469, 0.0815429688, -0.0449218750, -0.0581054688, -0.0049743652, 0.0332031250, 0.0683593750, 0.0148925781, 0.0634765625, 0.0375976562, 0.0209350586, 0.0717773438, -0.0529785156, -0.0664062500, -0.0139160156, 0.0426025391, 0.0747070312, -0.0062866211, -0.0231933594, 0.0422363281, -0.0360107422, -0.0082702637, -0.0204467773, -0.0451660156, -0.0505371094, -0.0312500000, -0.0742187500, 0.0251464844, 0.0778808594, 0.0412597656, -0.0207519531, -0.0239257812, 0.0084838867, -0.0720214844, 0.0363769531, -0.0415039062, 0.0820312500, -0.0025024414, 0.0367431641, -0.0678710938, -0.0311279297, -0.0140991211, 0.0549316406, 0.0522460938, 0.0177001953, 0.0108032227, 0.0158081055, -0.0202026367, 0.0783691406, -0.0439453125, 0.0299072266, -0.0074157715, -0.0681152344, -0.0239257812, -0.0710449219, -0.0783691406, 0.0128784180, 0.0461425781, 0.0566406250, 0.0676269531, -0.0483398438, -0.0329589844, -0.0603027344, 0.0468750000, 0.0432128906, 0.0747070312, -0.0603027344, 0.0771484375, -0.0607910156, -0.0289306641, -0.0112304688, 0.0458984375, 0.0284423828, 0.0541992188, 0.0051727295, -0.0060119629, 0.0468750000, 0.0334472656, 0.0776367188, -0.0196533203, 0.0218505859, 0.0417480469, -0.0693359375, 0.0556640625, 0.0463867188, -0.0651855469, 0.0656738281, 0.0639648438, -0.0747070312, -0.0820312500, -0.0395507812, 0.0839843750, 0.0588378906, -0.0493164062, -0.0607910156, -0.0111694336, -0.0793457031, 0.0742187500, 0.0656738281, 0.0729980469, 0.0274658203, -0.0021057129, -0.0754394531, 0.0103454590, -0.0480957031, -0.0578613281, -0.0156250000, 0.0507812500, 0.0659179688, -0.0039825439, 0.0534667969, 0.0251464844, 0.0588378906, -0.0434570312, 0.0327148438, 0.0595703125, 0.0164794922, 0.0539550781, -0.0837402344, -0.0347900391, 0.0517578125, 0.0388183594, 0.0820312500, -0.0268554688, 0.0434570312, -0.0837402344, 0.0493164062, -0.0154418945, -0.0415039062, 0.0449218750, -0.0568847656, -0.0344238281, 0.0286865234, -0.0313720703, 0.0330810547, 0.0336914062, -0.0576171875, -0.0256347656, 0.0827636719, -0.0406494141, 0.0364990234, 0.0005340576, -0.0654296875, 0.0178833008, -0.0524902344, 0.0810546875, 0.0468750000, -0.0030975342, 0.0744628906, -0.0153808594, -0.0642089844, 0.0196533203, -0.0230712891, 0.0710449219, 0.0286865234, 0.0422363281, -0.0625000000, -0.0715332031, -0.0605468750, -0.0173339844, -0.0156250000, 0.0360107422, -0.0187377930, 0.0708007812, -0.0192260742, 0.0284423828, 0.0532226562, 0.0627441406, 0.0478515625, -0.0659179688, -0.0236816406, 0.0617675781, -0.0045928955, -0.0028228760, -0.0133666992, -0.0128173828, -0.0073852539, 0.0549316406, -0.0603027344, 0.0002870560, 0.0427246094, -0.0094299316, 0.0488281250, -0.0093994141, 0.0096435547, 0.0139770508, -0.0827636719, -0.0515136719, 0.0086059570, 0.0250244141, 0.0255126953, -0.0149536133, -0.0105590820, 0.0075378418, 0.0090942383, -0.0268554688, 0.0512695312, -0.0257568359, 0.0500488281, 0.0189819336, 0.0078735352, 0.0429687500, 0.0264892578, -0.0277099609, 0.0094604492, 0.0252685547, 0.0471191406, -0.0449218750, -0.0434570312, -0.0397949219, -0.0096740723, -0.0703125000, -0.0354003906, -0.0595703125, 0.0578613281, -0.0033416748, 0.0288085938, -0.0703125000, 0.0040283203, 0.0817871094, 0.0356445312, -0.0769042969, 0.0099182129, -0.0317382812, 0.0739746094, 0.0427246094, -0.0615234375, -0.0134277344, -0.0161743164, -0.0131835938, 0.0093688965, -0.0812988281, 0.0754394531, -0.0832519531, -0.0507812500, -0.0622558594, 0.0051269531, 0.0729980469, 0.0556640625, 0.0554199219, 0.0600585938, -0.0336914062, 0.0559082031, -0.0437011719, 0.0097351074, -0.0729980469, -0.0571289062, -0.0522460938, -0.0230712891, -0.0311279297, 0.0444335938, 0.0754394531, -0.0666503906, 0.0607910156, -0.0193481445, -0.0781250000, 0.0830078125, 0.0766601562, -0.0659179688, 0.0250244141, 0.0668945312, -0.0178833008, 0.0357666016, -0.0786132812, 0.0590820312, 0.0541992188, 0.0634765625, -0.0186767578, -0.0656738281, 0.0329589844, 0.0642089844, -0.0734863281, -0.0000786781, -0.0812988281, -0.0498046875, 0.0532226562, -0.0258789062, -0.0291748047, -0.0133666992, 0.0588378906, -0.0391845703, 0.0202636719, -0.0454101562, 0.0803222656, -0.0129394531, -0.0214843750, -0.0463867188, -0.0502929688, 0.0137329102, 0.0105590820, 0.0229492188, 0.0625000000, -0.0121459961, 0.0236816406, 0.0340576172, -0.0307617188, -0.0343017578, 0.0137329102, 0.0495605469, -0.0235595703, 0.0249023438, -0.0229492188, -0.0109252930, -0.0024185181, 0.0656738281, -0.0307617188, 0.0258789062, 0.0413818359, 0.0165405273, 0.0407714844, 0.0678710938, 0.0590820312, 0.0637207031, 0.0039062500, -0.0500488281, -0.0642089844, -0.0198364258, 0.0103759766, 0.0355224609, -0.0703125000, 0.0066528320, -0.0399169922, 0.0512695312, 0.0053710938, 0.0421142578, -0.0277099609, -0.0218505859, 0.0512695312, -0.0549316406, 0.0485839844, -0.0820312500, -0.0466308594, -0.0319824219, -0.0439453125, 0.0369873047, -0.0249023438, 0.0590820312, -0.0307617188, 0.0458984375, -0.0788574219, -0.0534667969, 0.0311279297, -0.0480957031, -0.0388183594, -0.0077514648, -0.0642089844, 0.0426025391, -0.0042419434, -0.0055847168, 0.0505371094, -0.0700683594, 0.0686035156, -0.0576171875, -0.0225830078, 0.0352783203, -0.0617675781, -0.0593261719, -0.0070190430, -0.0642089844, 0.0751953125, 0.0717773438, -0.0423583984, 0.0664062500, -0.0394287109, 0.0235595703, 0.0111083984, 0.0585937500, 0.0781250000, 0.0366210938, 0.0803222656, -0.0043640137, 0.0118408203, 0.0182495117, 0.0434570312, -0.0546875000, -0.0434570312, -0.0817871094, 0.0134277344, 0.0415039062, -0.0285644531, -0.0808105469, 0.0167846680, -0.0754394531, -0.0710449219, -0.0350341797, -0.0020523071, -0.0311279297, -0.0125732422, 0.0446777344, 0.0186767578, 0.0498046875, 0.0328369141, 0.0275878906, -0.0505371094, 0.0764160156, 0.0798339844, -0.0319824219, -0.0837402344, -0.0297851562, 0.0737304688, 0.0133666992, 0.0074462891, 0.0712890625, -0.0077514648, -0.0625000000, -0.0668945312, -0.0468750000, 0.0023498535, 0.0820312500, 0.0429687500, -0.0062561035, 0.0332031250, -0.0773925781, 0.0349121094, 0.0166015625, 0.0607910156, 0.0500488281, -0.0720214844, 0.0700683594, 0.0357666016, 0.0178833008, -0.0544433594, 0.0808105469, -0.0307617188, -0.0172729492, 0.0781250000, 0.0756835938, 0.0791015625, 0.0744628906, 0.0121459961, 0.0019226074, 0.0033264160, 0.0338134766, 0.0224609375, 0.0382080078, 0.0532226562, 0.0408935547, -0.0257568359, -0.0279541016, 0.0581054688, -0.0156250000, 0.0578613281, -0.0285644531, -0.0488281250, 0.0374755859, -0.0405273438, -0.0030670166, -0.0803222656, -0.0214843750, 0.0077819824, -0.0306396484, -0.0488281250, 0.0258789062, 0.0749511719, 0.0223388672, 0.0216064453, 0.0544433594, 0.0345458984, 0.0408935547, -0.0590820312, -0.0115966797, 0.0766601562, -0.0788574219, -0.0067138672, 0.0607910156, 0.0388183594, -0.0034027100, 0.0111083984, -0.0451660156, -0.0093688965, 0.0001330376, 0.0213623047, -0.0289306641, 0.0239257812, -0.0301513672, -0.0036773682, 0.0355224609, 0.0812988281, -0.0395507812, 0.0238037109, -0.0642089844, 0.0233154297, 0.0399169922, 0.0053100586, 0.0198364258, -0.0275878906, -0.0203857422, 0.0263671875, -0.0678710938, -0.0257568359, 0.0559082031, 0.0581054688, 0.0000200272, -0.0366210938, -0.0615234375, 0.0842285156, -0.0112304688, -0.0419921875, 0.0756835938, -0.0698242188, -0.0050506592, -0.0101623535, 0.0424804688, -0.0761718750, 0.0639648438, 0.0722656250, -0.0593261719, 0.0316162109, -0.0576171875, 0.0534667969, -0.0408935547, 0.0688476562, -0.0366210938, 0.0345458984, 0.0419921875, -0.0432128906, 0.0739746094, 0.0363769531, -0.0524902344, -0.0024414062, 0.0177001953, -0.0327148438, -0.0358886719, -0.0217285156, 0.0476074219, 0.0183715820, -0.0751953125, 0.0151977539, -0.0820312500, -0.0812988281, -0.0317382812, -0.0534667969, -0.0522460938, 0.0822753906, 0.0634765625, -0.0192871094, -0.0771484375, 0.0224609375, 0.0238037109, -0.0734863281, 0.0346679688, 0.0199584961, 0.0110473633, -0.0050048828, -0.0321044922, 0.0629882812, 0.0766601562, 0.0247802734, -0.0040588379, 0.0688476562, -0.0412597656, -0.0006504059, 0.0725097656, -0.0146484375, -0.0468750000, -0.0343017578, 0.0500488281, -0.0712890625, -0.0820312500, 0.0270996094, -0.0042572021, -0.0144042969, -0.0065002441, -0.0783691406, 0.0522460938, 0.0598144531, 0.0405273438, 0.0390625000, -0.0710449219, 0.0446777344, 0.0524902344, -0.0532226562, 0.0272216797, -0.0222167969, -0.0534667969, -0.0708007812, 0.0747070312, 0.0070800781, -0.0656738281, -0.0461425781, 0.0656738281, 0.0061340332, 0.0725097656, 0.0666503906, 0.0194702148, 0.0593261719, 0.0104064941, 0.0043182373, 0.0625000000, -0.0290527344, -0.0394287109, 0.0327148438, 0.0223388672, 0.0820312500, 0.0764160156, -0.0629882812, -0.0185546875, -0.0681152344, 0.0142822266, 0.0698242188, -0.0686035156, 0.0700683594, -0.0112304688, -0.0681152344, -0.0734863281, -0.0666503906, 0.0317382812, 0.0493164062, -0.0200805664, -0.0703125000, 0.0449218750, 0.0551757812, -0.0055236816, -0.0035705566, 0.0708007812, 0.0046234131, -0.0778808594, 0.0566406250, -0.0551757812, 0.0423583984, -0.0827636719, 0.0576171875, 0.0429687500, 0.0590820312, -0.0065307617, 0.0249023438, -0.0439453125, 0.0541992188, 0.0034942627, 0.0671386719, -0.0024414062, 0.0206298828, 0.0043029785, 0.0732421875, -0.0246582031, 0.0410156250, -0.0109252930, 0.0617675781, -0.0522460938, -0.0808105469, 0.0803222656, -0.0473632812, 0.0710449219, -0.0522460938, 0.0449218750, 0.0033264160, -0.0629882812, -0.0070800781, 0.0061340332, 0.0119628906, -0.0513916016, 0.0449218750, 0.0898437500, 0.0512695312, 0.0900878906, -0.0136718750, 0.0920410156, 0.0769042969, 0.1354980469, 0.1254882812, -0.0623779297, -0.1667480469, 0.0417480469, -0.0097656250, -0.0342254639, -0.0191345215, -0.0038452148, -0.0008544922, -0.0700683594, 0.0125732422, 0.0013427734, -0.0975952148, 0.0124511719, 0.0051879883, -0.0432128906, -0.0827636719, -0.0712890625, 0.0418701172, 0.0893554688, 0.1491699219, -0.0378417969, -0.0487060547, 0.0983886719, 0.0097656250, 0.1146240234, -0.0336914062, 0.0272216797, -0.0511474609, -0.0402832031, 0.0319213867, 0.0913085938, -0.0534667969, 0.1013183594, 0.0753784180, 0.0136718750, 0.0343017578, -0.1291503906, -0.0045166016, 0.0715332031, -0.0097656250, 0.0378417969, 0.0732421875, 0.1007690430, 0.0039062500, 0.0155029297, 0.0022888184, 0.0826416016, -0.0174560547, -0.0676269531, -0.0541992188, 0.0361328125, 0.0556640625, -0.0488281250, 0.0406494141, -0.0278320312, 0.0309448242, 0.0408325195, -0.0737304688, 0.0590820312, -0.0397949219, 0.1010742188, -0.0523681641, -0.0043945312, 0.0059814453, -0.0189208984, -0.1225585938, 0.0209960938, 0.1325683594, 0.0417480469, 0.0358886719, -0.0908203125, 0.0023193359, -0.0672607422, 0.0620117188, -0.0095214844, -0.1191406250, 0.1611328125, 0.0576171875, -0.0189208984, 0.0717773438, -0.0493164062, 0.0338745117, -0.0198974609, 0.1416015625, -0.0074462891, -0.0738525391, 0.0031738281, 0.0158691406, 0.0965576172, -0.0283203125, -0.0331115723, -0.1352539062, -0.0129394531, 0.0935058594, 0.0098876953, 0.0390319824, 0.0816650391, 0.1611328125, -0.0447998047, 0.0465087891, -0.1125488281, -0.0830078125, -0.0312500000, -0.1030883789, 0.1357421875, 0.0820312500, 0.0592041016, -0.0893554688, 0.0429687500, 0.0654296875, 0.0280761719, -0.0083007812, 0.0478515625, 0.0400390625, -0.0299072266, -0.0059204102, -0.0747070312, -0.0620117188, 0.0683593750, 0.0373535156, 0.0510253906, -0.0727539062, 0.0532226562, 0.0020294189, 0.1008300781, -0.0330810547, -0.0325927734, 0.0529785156, 0.0297851562, 0.0612792969, 0.0069885254, 0.0333557129, 0.0469970703, 0.0786132812, 0.0201950073, 0.1074218750, 0.0642089844, 0.0585937500, 0.0407714844, 0.0810546875, 0.0058898926, -0.0522460938, -0.0052490234, 0.0703125000, -0.0197753906, 0.0066833496, 0.0005035400, -0.0623779297, 0.0468750000, 0.0550537109, 0.0081787109, -0.0776367188, -0.0341796875, 0.0498046875, 0.0161132812, 0.0443115234, 0.0516357422, 0.0007324219, -0.0429687500, -0.0515136719, -0.0524902344, 0.0480957031, 0.0164184570, 0.0416870117, 0.0781250000, -0.0213623047, -0.0488281250, -0.0524902344, -0.0759277344, -0.0427246094, -0.0021972656, -0.0476074219, -0.0720214844, -0.0277099609, -0.0009422302, 0.0153503418, 0.0614013672, 0.0151977539, 0.0303955078, 0.0021209717, -0.0457763672, -0.0639648438, 0.0649414062, 0.0280151367, 0.0550537109, 0.0656738281, 0.0004901886, 0.0695800781, 0.0742187500, -0.0435791016, 0.0178222656, 0.0187988281, -0.0495605469, -0.0283203125, -0.0244750977, -0.0115356445, -0.0065612793, -0.0074157715, -0.0002441406, -0.0734863281, 0.0116348267, 0.0155029297, 0.0452880859, 0.0747070312, 0.0512695312, -0.0256347656, 0.0307006836, 0.0615234375, 0.0649414062, -0.0270996094, -0.0788574219, -0.0063648224, 0.0532226562, 0.0068273544, 0.0754394531, 0.0531005859, 0.0275878906, -0.0491943359, -0.0115051270, -0.0011901855, -0.0384521484, -0.0003814697, -0.0073242188, -0.0030975342, -0.0432128906, 0.0773925781, 0.0186157227, 0.0263061523, 0.0739746094, -0.0144042969, 0.0020828247, -0.0458984375, -0.0179138184, 0.0084228516, -0.0644531250, -0.0280761719, 0.0615234375, -0.0526123047, 0.0154418945, -0.0361328125, 0.0169677734, 0.0678710938, 0.0808105469, 0.0798339844, 0.0666503906, 0.0681152344, 0.0305175781, -0.0020217896, 0.0793457031, -0.0427246094, 0.0148925781, -0.0776367188, -0.0556640625, 0.0581054688, 0.0598144531, -0.0358886719, 0.0067749023, 0.0133056641, -0.0260009766, -0.0732421875, 0.0214843750, -0.0537109375, 0.0010986328, -0.0817871094, -0.0668945312, -0.0551757812, -0.0233154297, 0.0419921875, 0.0028839111, -0.0289306641, -0.0412597656, 0.0715332031, -0.0264892578, 0.0099487305, -0.0808105469, 0.0249023438, 0.0700683594, -0.0123291016, 0.0671386719, -0.0385742188, -0.0573730469, 0.0182495117, -0.0759277344, -0.0015335083, 0.0698242188, -0.0061645508, 0.0559082031, 0.0512695312, -0.0058898926, 0.0082092285, 0.0258789062, -0.0042572021, -0.0408935547, 0.0578613281, -0.0756835938, 0.0228271484, -0.0490722656, -0.0588378906, 0.0695800781, 0.0192260742, 0.0355224609, 0.0732421875, 0.0166015625, 0.0676269531, 0.0187988281, -0.0808105469, 0.0072631836, -0.0485839844, -0.0747070312, -0.0150146484, -0.0222167969, 0.0003547668, -0.0771484375, 0.0510253906, -0.0598144531, 0.0507812500, 0.0022277832, -0.0600585938, -0.0330810547, 0.0549316406, 0.0454101562, -0.0744628906, 0.0389404297, 0.0761718750, 0.0311279297, 0.0129394531, 0.0204467773, -0.0637207031, -0.0471191406, 0.0405273438, -0.0113525391, 0.0214843750, -0.0025787354, 0.0195922852, 0.0695800781, -0.0488281250, 0.0617675781, -0.0022735596, 0.0695800781, -0.0039825439, 0.0014038086, -0.0744628906, -0.0263671875, 0.0302734375, -0.0585937500, 0.0666503906, -0.0149536133, -0.0131225586, -0.0566406250, 0.0681152344, -0.0040740967, -0.0055236816, 0.0301513672, 0.0825195312, 0.0235595703, 0.0106201172, 0.0634765625, 0.0632324219, 0.0515136719, -0.0554199219, 0.0045471191, 0.0729980469, -0.0187377930, 0.0661621094, -0.0049133301, 0.0639648438, -0.0115966797, -0.0727539062, -0.0839843750, 0.0449218750, -0.0722656250, 0.0507812500, -0.0004596710, -0.0739746094, 0.0258789062, 0.0822753906, 0.0139160156, 0.0166015625, -0.0003833771, 0.0036163330, 0.0111083984, 0.0390625000, 0.0498046875, 0.0725097656, -0.0766601562, 0.0812988281, 0.0228271484, 0.0291748047, 0.0434570312, -0.0252685547, -0.0554199219, -0.0156250000, 0.0476074219, -0.0155639648, 0.0086975098, -0.0389404297, 0.0301513672, 0.0656738281, 0.0627441406, 0.0581054688, 0.0695800781, 0.0240478516, -0.0720214844, -0.0417480469, 0.0617675781, -0.0165405273, 0.0810546875, 0.0615234375, 0.0795898438, -0.0490722656, -0.0646972656, 0.0048217773, 0.0322265625, 0.0458984375, -0.0639648438, 0.0605468750, 0.0478515625, -0.0773925781, -0.0026321411, 0.0485839844, 0.0524902344, 0.0249023438, -0.0656738281, -0.0253906250, -0.0417480469, -0.0416259766, -0.0416259766, -0.0111083984, -0.0664062500, -0.0116577148, 0.0458984375, 0.0213012695, -0.0308837891, 0.0067138672, 0.0827636719, -0.0444335938, -0.0524902344, -0.0671386719, 0.0394287109, -0.0554199219, -0.0812988281, 0.0454101562, 0.0045318604, -0.0345458984, 0.0317382812, -0.0027465820, -0.0463867188, 0.0778808594, -0.0336914062, -0.0141601562, -0.0480957031, 0.0250244141, -0.0380859375, -0.0092773438, 0.0825195312, -0.0703125000, -0.0084838867, 0.0739746094, -0.0573730469, -0.0432128906, 0.0644531250, 0.0483398438, -0.0139770508, -0.0236816406, -0.0524902344, -0.0673828125, -0.0025482178, -0.0771484375, 0.0656738281, 0.0751953125, -0.0229492188, 0.0249023438, -0.0011405945, -0.0456542969, 0.0142822266, 0.0642089844, -0.0161743164, 0.0671386719, -0.0256347656, 0.0627441406, 0.0273437500, 0.0068664551, 0.0434570312, -0.0505371094, -0.0571289062, -0.0358886719, 0.0820312500, 0.0025863647, -0.0031280518, 0.0285644531, 0.0220947266, 0.0610351562, -0.0371093750, 0.0605468750, -0.0749511719, -0.0532226562, 0.0064697266, 0.0251464844, -0.0027770996, -0.0820312500, 0.0079040527, -0.0742187500, -0.0032501221, -0.0834960938, 0.0324707031, 0.0493164062, 0.0421142578, -0.0369873047, -0.0269775391, 0.0065307617, 0.0349121094, 0.0712890625, -0.0776367188, 0.0189819336, 0.0334472656, 0.0291748047, -0.0822753906, 0.0173950195, -0.0401611328, 0.0002126694, 0.0705566406, -0.0068969727, -0.0729980469, 0.0118408203, -0.0256347656, 0.0322265625, -0.0524902344, 0.0229492188, 0.0295410156, 0.0063476562, -0.0103149414, 0.0368652344, 0.0057678223, -0.0563964844, -0.0446777344, 0.0456542969, -0.0773925781, -0.0242919922, 0.0786132812, -0.0480957031, 0.0561523438, -0.0754394531, -0.0162963867, 0.0156250000, -0.0529785156, 0.0468750000, -0.0063171387, -0.0415039062, 0.0466308594, 0.0673828125, -0.0632324219, -0.0495605469, -0.0260009766, 0.0318603516, -0.0134277344, 0.0544433594, -0.0140380859, -0.0683593750, -0.0011405945, 0.0527343750, -0.0751953125, -0.0458984375, -0.0654296875, 0.0461425781, 0.0417480469, 0.0471191406, -0.0253906250, -0.0032348633, -0.0333251953, 0.0301513672, -0.0766601562, -0.0183105469, -0.0810546875, 0.0347900391, -0.0051116943, 0.0043640137, -0.0563964844, 0.0181884766, -0.0471191406, -0.0285644531, 0.0250244141, 0.0524902344, 0.0109252930, -0.0080871582, 0.0664062500, 0.0673828125, 0.0625000000, -0.0205688477, -0.0092468262, -0.0568847656, 0.0272216797, -0.0411376953, 0.0502929688, 0.0143432617, -0.0187988281, 0.0573730469, -0.0172729492, -0.0266113281, -0.0129394531, -0.0566406250, -0.0405273438, 0.0423583984, -0.0088806152, 0.0307617188, -0.0070800781, 0.0578613281, 0.0532226562, -0.0478515625, -0.0144653320, 0.0410156250, 0.0512695312, -0.0068359375, -0.0561523438, 0.0463867188, -0.0378417969, -0.0458984375, -0.0395507812, -0.0559082031, -0.0010871887, 0.0554199219, -0.0732421875, -0.0407714844, -0.0357666016, -0.0527343750, 0.0214843750, 0.0529785156, 0.0188598633, -0.0776367188, 0.0185546875, -0.0771484375, 0.0695800781, -0.0732421875, -0.0822753906, 0.0168457031, 0.0458984375, -0.0712890625, 0.0368652344, 0.0383300781, 0.0751953125, 0.0249023438, -0.0279541016, -0.0471191406, 0.0297851562, -0.0754394531, -0.0302734375, 0.0385742188, 0.0668945312, -0.0690917969, -0.0396728516, -0.0388183594, -0.0444335938, -0.0015335083, -0.0120239258, 0.0493164062, -0.0485839844, -0.0155029297, -0.0413818359, 0.0417480469, -0.0222167969, 0.0341796875, -0.0603027344, -0.0015411377, -0.0015182495, -0.0027008057, 0.0456542969, -0.0258789062, 0.0146484375, -0.0793457031, -0.0027008057, -0.0191040039, 0.0690917969, -0.0064392090, 0.0830078125, 0.0441894531, -0.0154418945, -0.0294189453, -0.0044708252, 0.0077209473, 0.0642089844, -0.0722656250, -0.0493164062, 0.0437011719, -0.0172119141, 0.0476074219, -0.0020065308, -0.0634765625, -0.0301513672, 0.0759277344, 0.0045318604, -0.0058898926, -0.0734863281, 0.0622558594, 0.0196533203, -0.0000610352, -0.0071411133, 0.0788574219, -0.0294189453, -0.0311279297, -0.0466308594, -0.0617675781, -0.0788574219, 0.0825195312, -0.0764160156, -0.0065307617, 0.0747070312, 0.0817871094, -0.0493164062, 0.0206909180, -0.0316162109, 0.0322265625, 0.0394287109, 0.0249023438, 0.0568847656, -0.0123291016, -0.0049438477, -0.0456542969, -0.0534667969, 0.0676269531, -0.0805664062, -0.0446777344, 0.0216064453, 0.0220947266, 0.0303955078, 0.0544433594, -0.0238037109, 0.0289306641, 0.0209350586, 0.0659179688, 0.0284423828, 0.0266113281, 0.0483398438, 0.0695800781, 0.0008621216, -0.0297851562, 0.0041503906, -0.0832519531, -0.0598144531, -0.0183715820, -0.0717773438, -0.0332031250, -0.0006542206, 0.0634765625, 0.0703125000, -0.0446777344, 0.0084228516, -0.0145874023, -0.0781250000, 0.0039367676, 0.0444335938, 0.0229492188, 0.0698242188, 0.0747070312, -0.0300292969, -0.0335693359, 0.0240478516, -0.0664062500, 0.0095520020, 0.0308837891, -0.0054931641, 0.0571289062, 0.0593261719, -0.0211791992, 0.0583496094, -0.0408935547, -0.0128173828, 0.0003137589, 0.0759277344, 0.0228271484, -0.0360107422, 0.0319824219, -0.0783691406, -0.0515136719, 0.0725097656, -0.0732421875, 0.0079040527, 0.0461425781, 0.0639648438, 0.0303955078, -0.0517578125, 0.0206298828, 0.0187377930, -0.0783691406, 0.0404052734, -0.0747070312, 0.0544433594, -0.0288085938, -0.0541992188, -0.0022354126, 0.0490722656, -0.0303955078, -0.0299072266, -0.0520019531, 0.0456542969, -0.0333251953, -0.0603027344, -0.0130615234, -0.0155639648, 0.0323486328, 0.0390625000, 0.0737304688, 0.0729980469, 0.0148315430, 0.0166015625, 0.0111694336, 0.0617675781, 0.0739746094, 0.0761718750, 0.0034790039, -0.0527343750, -0.0203247070, 0.0088806152, -0.0033569336, -0.0605468750, -0.0744628906, -0.0651855469, -0.0181274414, 0.0517578125, -0.0822753906, 0.0637207031, 0.0588378906, -0.0463867188, 0.0144653320, 0.0186767578, -0.0734863281, 0.0632324219, 0.0089111328, -0.0695800781, -0.0830078125, 0.0031127930, 0.0202026367, -0.0051422119, -0.0364990234, 0.0290527344, 0.0245361328, 0.0224609375, -0.0812988281, 0.0375976562, -0.0135498047, 0.0744628906, 0.0510253906, -0.0583496094, -0.0083312988, 0.0832519531, -0.0532226562, 0.0019989014, -0.0009002686, 0.0016250610, 0.0043487549, -0.0676269531, -0.0029602051, 0.0444335938, -0.0712890625, -0.0233154297, -0.0118408203, -0.0336914062, 0.0384521484, -0.0241699219, 0.0571289062, 0.0600585938, -0.0145263672, -0.0671386719, 0.0216064453, -0.0510253906, -0.0507812500, 0.0013504028, 0.0837402344, -0.0583496094, -0.0605468750, -0.0490722656, -0.0437011719, 0.0468750000, -0.0466308594, -0.0393066406, 0.0708007812, 0.0527343750, 0.0084533691, -0.0199584961, -0.0352783203, 0.0131835938, -0.0354003906, 0.0795898438, 0.0004215240, -0.0258789062, 0.0074462891, -0.0656738281, -0.0239257812, 0.0257568359, -0.0551757812, 0.0715332031, 0.0318603516, -0.0042114258, -0.0800781250, -0.0429687500, -0.0223388672, 0.0427246094, -0.0441894531, 0.0434570312, -0.0793457031, -0.0581054688, -0.0292968750, -0.0778808594, -0.0172119141, 0.0108032227, 0.0213012695, 0.0605468750, -0.0211181641, -0.0427246094, 0.0588378906, 0.0517578125, -0.0507812500, -0.0391845703, -0.0749511719, -0.0571289062, -0.0313720703, 0.0769042969, 0.0418701172, -0.0698242188, -0.0074462891, -0.0590820312, 0.0261230469, 0.0186157227, -0.0296630859, -0.0120849609, -0.0324707031, 0.0463867188, 0.0649414062, -0.0483398438, -0.0167846680, -0.0458984375, 0.0191650391, -0.0686035156, 0.0165405273, -0.0208740234, 0.0026168823, 0.0703125000, 0.0323486328, 0.0600585938, 0.0688476562, -0.0135498047, -0.0266113281, 0.0549316406, -0.0330810547, 0.0729980469, -0.0485839844, 0.0646972656, 0.0385742188, -0.0372314453, 0.0422363281, 0.0412597656, -0.0358886719, -0.0705566406, 0.0642089844, 0.0191650391, -0.0125732422, 0.0208740234, -0.0686035156, -0.0659179688, 0.0192871094, -0.0583496094, -0.0357666016, -0.0089111328, 0.0439453125, -0.0483398438, -0.0549316406, 0.0668945312, -0.0737304688, -0.0471191406, -0.0729980469, 0.0764160156, -0.0661621094, 0.0610351562, 0.0654296875, -0.0803222656, -0.0091247559, -0.0388183594, 0.0756835938, 0.0439453125, -0.0207519531, -0.0485839844, 0.0571289062, -0.0032348633, -0.0422363281, -0.0423583984, 0.0314941406, -0.0394287109, -0.0507812500, -0.0520019531, -0.0041656494, -0.0008316040, 0.0186157227, -0.0344238281, 0.0412597656, -0.0808105469, 0.0695800781, -0.0388183594, 0.0622558594, 0.0505371094, -0.0106506348, -0.0612792969, 0.0556640625, -0.0084838867, 0.0732421875, 0.0546875000, 0.0310058594, -0.0042572021, 0.0429687500, -0.0123901367, -0.0458984375, -0.0401611328, -0.0346679688, 0.0340576172, -0.0006637573, -0.0371093750, -0.0110473633, 0.0167236328, 0.0278320312, 0.0817871094, 0.0050354004, -0.0537109375, -0.0720214844, -0.0065307617, 0.0165405273, 0.0351562500, 0.0839843750, 0.0541992188, -0.0144042969, 0.0334472656, -0.0524902344, 0.0097656250, -0.0795898438, -0.0805664062, 0.0659179688, 0.0815429688, 0.0764160156, -0.0158691406, -0.0554199219, -0.0205078125, -0.0617675781, 0.0825195312, 0.0427246094, -0.0386962891, 0.0339355469, -0.0167236328, -0.0539550781, -0.0313720703, -0.0059814453, -0.0034332275, 0.0214843750, -0.0715332031, 0.0700683594, 0.0022811890, 0.0815429688, 0.0598144531, 0.0405273438, 0.0541992188, -0.0559082031, 0.0329589844, 0.0576171875, -0.0207519531, 0.0116577148, 0.0629882812, 0.0002279282, 0.0498046875, -0.0529785156, 0.0339355469, -0.0088195801, 0.0042114258, -0.0319824219, 0.0014953613, 0.0756835938, -0.0708007812, -0.0339355469, 0.0764160156, 0.0661621094, -0.0634765625, -0.0659179688, 0.0223388672, -0.0725097656, -0.0316162109, -0.0800781250, 0.0610351562, 0.0556640625, -0.0424804688, -0.0808105469, 0.0637207031, 0.0230712891, 0.0264892578, -0.0441894531, 0.0281982422, 0.0825195312, 0.0379638672, 0.0223388672, -0.0571289062, 0.0700683594, 0.0288085938, 0.0771484375, -0.0295410156, -0.0415039062, 0.0773925781, 0.0454101562, -0.0238037109, -0.0288085938, 0.0115356445, 0.0495605469, -0.0505371094, 0.0299072266, -0.0281982422, -0.0236816406, 0.0263671875, 0.0681152344, -0.0322265625, 0.0500488281, -0.0328369141, -0.0229492188, -0.0830078125, 0.0253906250, -0.0177001953, 0.0734863281, 0.0722656250, 0.0303955078, 0.0502929688, -0.0822753906, -0.0246582031, -0.0006332397, 0.0375976562, -0.0529785156, 0.0023193359, -0.0407714844, -0.0681152344, -0.0688476562, -0.0532226562, -0.0227050781, -0.0661621094, -0.0483398438, 0.0238037109, 0.0390625000, -0.0411376953, 0.0225830078, -0.0144042969, -0.0668945312, 0.0249023438, -0.0071716309, -0.0490722656, 0.0296630859, -0.0253906250, -0.0786132812, -0.0825195312, 0.0317382812, -0.0712890625, -0.0686035156, 0.0832519531, -0.0101623535, -0.0432128906, -0.0256347656, -0.0319824219, 0.0649414062, -0.0476074219, -0.0383300781, -0.0473632812, 0.0097351074, -0.0008239746, 0.0532226562, 0.0223388672, -0.0336914062, -0.0522460938, 0.0722656250, 0.0485839844, -0.0263671875, 0.0198974609, 0.0839843750, -0.0224609375, 0.0810546875, -0.0115356445, 0.0421142578, 0.0081481934, 0.0026397705, -0.0101623535, -0.0732421875, 0.0230712891, -0.0327148438, -0.0228271484, 0.0328369141, 0.0661621094, -0.0395507812, -0.0666503906, 0.0299072266, -0.0347900391, -0.0057373047, -0.0805664062, -0.0837402344, -0.0712890625, 0.0432128906, 0.0130004883, -0.0600585938, -0.0676269531, 0.0088195801, -0.0627441406, 0.0563964844, -0.0364990234, 0.0015792847, -0.0563964844, -0.0228271484, 0.0720214844, 0.0512695312, 0.0040130615, 0.0820312500, 0.0595703125, 0.0091552734, 0.0473632812, -0.0428466797, -0.0734863281, -0.0615234375, -0.0529785156, 0.0827636719, -0.0236816406, -0.0279541016, -0.0228271484, 0.0382080078, 0.0686035156, -0.0480957031, 0.0600585938, -0.0761718750, -0.0419921875, -0.0052642822, -0.0590820312, -0.0449218750, -0.0805664062, -0.0485839844, -0.0260009766, -0.0291748047, 0.0170288086, -0.0595703125, 0.0600585938, -0.0478515625, 0.0615234375, 0.0668945312, 0.0671386719, -0.0571289062, -0.0234375000, -0.0081481934, -0.0712890625, 0.0084533691, -0.0114135742, -0.0654296875, 0.0181884766, -0.0025939941, -0.0546875000, 0.0664062500, 0.0825195312, -0.0517578125, -0.0795898438, -0.0700683594, -0.0786132812, 0.0668945312, 0.0214843750, -0.0043640137, 0.0656738281, -0.0686035156, 0.0549316406, 0.0300292969, 0.0225830078, 0.0756835938, -0.0793457031, -0.0495605469, -0.0423583984, -0.0112915039, 0.0074768066, 0.0330810547, -0.0065612793, 0.0856933594, 0.0078735352, -0.0800781250, -0.0281982422, -0.0437011719, 0.0432128906, 0.0532226562, -0.0054321289, 0.0035400391, -0.0510253906, -0.0603027344, -0.0345458984, -0.0666503906, -0.0712890625, 0.0424804688, -0.0463867188, 0.0729980469, 0.0385742188, -0.0202026367, 0.0172119141, -0.0264892578, 0.0598144531, 0.0576171875, -0.0334472656, -0.0395507812, 0.0374755859, 0.0554199219, -0.0117187500, 0.0593261719, 0.0156250000, 0.0854492188, -0.0632324219, 0.0003967285, -0.0676269531, 0.0615234375, -0.0291748047, -0.0096435547, 0.0573730469, -0.0258789062, 0.0661621094, 0.0240478516, -0.0236816406, -0.0078125000, -0.0142211914, 0.0126724243, -0.0834960938, 0.0340576172, -0.0844726562, 0.0082092285, 0.0132446289, -0.0541992188, 0.0512695312, 0.0554199219, 0.0034484863, 0.0185546875, 0.0125732422, 0.0561523438, 0.0759277344, -0.0449218750, -0.0546875000, 0.0284423828, 0.0198974609, -0.0061035156, 0.0207519531, 0.0244903564, -0.0150451660, -0.1003417969, 0.0158276558, 0.0605468750, 0.0335693359, -0.0769042969, 0.0725097656, -0.0244140625, 0.0023193359, -0.0047454834, -0.0445556641, 0.0485839844, -0.0585937500, 0.0384063721, -0.0239257812, 0.0217285156, -0.0484008789, -0.0502929688, 0.0244140625, 0.0764160156, -0.0058593750, -0.0563964844, -0.0084228516, -0.0405273438, 0.0354270935, 0.0406494141, 0.0964355469, -0.0771484375, -0.0534667969, 0.0715332031, -0.1013183594, -0.0075073242, -0.0539550781, -0.0417480469, 0.0981445312, 0.0922851562, -0.0175170898, -0.0668945312, -0.1052246094, -0.0195312500, 0.0415039062, 0.0487060547, 0.1113281250, -0.0107421875, -0.0014648438, -0.0289306641, 0.0737304688, -0.0181274414, 0.0364990234, 0.0339355469, 0.0637207031, 0.0578613281, 0.0350875854, -0.0529785156, -0.0910644531, 0.0117187500, 0.0257568359, -0.0315856934, -0.0307617188, 0.0512695312, -0.0054016113, 0.1098937988, -0.1109466553, 0.0972290039, 0.0666503906, -0.0797729492, 0.1264648438, -0.0709228516, 0.0390625000, 0.0169067383, 0.0281982422, 0.0007324219, 0.1713867188, -0.0373535156, 0.0483398438, 0.0051269531, 0.0190429688, 0.0383300781, 0.0092773438, -0.0434799194, -0.0991821289, 0.1379394531, -0.1079101562, 0.0510253906, -0.1349487305, -0.0664062500, 0.1019287109, 0.0930175781, 0.0709228516, -0.0101318359, 0.1061401367, -0.0744628906, 0.1647949219, 0.1123275757, -0.0878906250, -0.0241699219, 0.1302490234, -0.0224609375, 0.1889648438, 0.1059570312, -0.0131072998, 0.0002965927, -0.0026855469, -0.0166015625, 0.0028228760, 0.1348876953, 0.0878906250, 0.1366577148, 0.0483398438, 0.0445556641, 0.1420898438, -0.0766601562, 0.0563964844, -0.0830078125, -0.1184997559, 0.0805664062, 0.1621093750, -0.0159912109, -0.0364990234, 0.0673828125, -0.1904296875, -0.0927734375, 0.0625000000, 0.0038757324, 0.0465087891, 0.0997314453, -0.1687011719, 0.1870117188, -0.0288085938, -0.1274414062, 0.0616683960, -0.1230468750, 0.0036621094, 0.0397949219, 0.0437011719, -0.0695800781, 0.1528320312, -0.0148925781, -0.0153808594, 0.0218811035, -0.0402832031, 0.0761718750, 0.1311035156, 0.0075683594, -0.1014404297, 0.0281982422, -0.0075683594, 0.0106201172, -0.0926513672, -0.1143798828, 0.0166015625, 0.0261230469, 0.1865234375, 0.1311035156, 0.1791992188, -0.0078125000, 0.1149978638, 0.0302734375, -0.1484375000, -0.1442871094, 0.0693359375, 0.0462036133, 0.1948242188, 0.0748291016, 0.0568847656, -0.0545043945, -0.1440429688, 0.0087890625, 0.0124511719, 0.1315917969, 0.1708984375, 0.2126464844, 0.0214843750, 0.0708007812, 0.0801391602, 0.0325927734, 0.0500488281, -0.1619873047, -0.0014648438, 0.0661621094, 0.0290527344, -0.0765380859, -0.0661010742, -0.0234375000, -0.0771484375, -0.1611328125, 0.0841064453, 0.0170898438, -0.0627441406, 0.0371093750, -0.1542968750, 0.0056152344, 0.0217285156, -0.0632324219, 0.0819091797, -0.0490722656, 0.0408935547, -0.0195922852, 0.0773925781, 0.1564941406, 0.0950012207, -0.0488281250, -0.0603027344, -0.0620117188, -0.0988769531, 0.0814514160, 0.0380859375, -0.0627441406, -0.0869903564, 0.1010742188, -0.0937500000, -0.0708007812, -0.0483398438, -0.1801757812, 0.0340270996, 0.0666503906, 0.0806121826, -0.0888671875, 0.0078125000, 0.0683593750, 0.1569824219, 0.0551757812, -0.1445312500, -0.0762939453, 0.0178222656, 0.0457630157, 0.0278320312, 0.0104980469, -0.0140819550, -0.0607910156, -0.0466308594, -0.0258789062, 0.0127563477, 0.0241699219, 0.0462646484, 0.1799316406, -0.0728759766, 0.0706787109, 0.0470695496, -0.0537109375, 0.0767822266, -0.0752563477, 0.0673828125, 0.0321655273, 0.0867309570, -0.0068359375, -0.0761718750, -0.0324707031, -0.0249023438, -0.0056152344, 0.0650329590, 0.0202636719, 0.0700683594, 0.0335693359, -0.0728149414, 0.0177612305, -0.0432128906, -0.0268554688, 0.1113281250, -0.1179199219, 0.0291748047, -0.0764160156, -0.0410156250, 0.1308593750, 0.0043945312, -0.0061035156, -0.0456542969, -0.0517578125, -0.0269775391, 0.0802001953, 0.0659179688, -0.1262207031, 0.0195312500, 0.0913085938, -0.0153808594, -0.0343017578, 0.0246582031, -0.0946044922, 0.0170326233, 0.0192871094, 0.0036621094, -0.1013183594, 0.0000000000, 0.0451660156, 0.0002441406, -0.0234375000, 0.0368652344, -0.1125488281, -0.0375976562, 0.0134124756, 0.1232910156, -0.0187988281, -0.1135253906, 0.0270996094, -0.0423583984, 0.1005859375, 0.0266113281, 0.1398315430, -0.0117187500, 0.1022949219, 0.0632324219, 0.0270996094, 0.0109863281, -0.0110473633, 0.1105957031, -0.0653228760, 0.0135192871, 0.0136718750, 0.0786132812, 0.0429687500, 0.0234375000, -0.0242919922, 0.0197753906, -0.1193847656, 0.1108398438, 0.0373535156, -0.0289306641, 0.0742797852, -0.0159912109, 0.0988769531, -0.0278320312, -0.0457153320, -0.0158691406, -0.0291748047, 0.0461425781, 0.0065917969, 0.1076660156, 0.1970214844, 0.0900230408, 0.0456542969, -0.1259765625, -0.0499267578, 0.0136718750, -0.0253906250, -0.0068359375, -0.0244750977, -0.0982055664, 0.0532226562, -0.0079345703, -0.0004253387, -0.0589752197, -0.0670166016, 0.0739135742, -0.0278320312, 0.0728149414, 0.0335693359, 0.0205078125, 0.0727539062, -0.0156250000, 0.0253906250, -0.0651855469, -0.1130523682, -0.0285644531, -0.0140991211, 0.0841369629, 0.0784606934, 0.0126953125, 0.0117187500, -0.1062011719, -0.0012207031, -0.0368652344, 0.1030883789, 0.0794677734, 0.2321777344, -0.0559082031, -0.0361328125, -0.0603027344, 0.0607910156, 0.1013183594, -0.0618896484, 0.0408935547, 0.0627441406, 0.0390625000, -0.0533447266, -0.0920410156, 0.0556640625, 0.0845260620, -0.1423339844, 0.0886230469, 0.1223144531, 0.0595703125, 0.0092773438, 0.0180664062, 0.0693969727, -0.0740966797, -0.0670776367, 0.0101318359, -0.0234375000, 0.0759277344, -0.0034179688, 0.0691680908, 0.1394042969, 0.1083984375, 0.1744384766, -0.0133934021, -0.1955566406, 0.0334472656, 0.1027832031, 0.0690917969, 0.0390625000, -0.0925292969, -0.0869140625, -0.1086425781, 0.0166015625, -0.1085205078, -0.1855468750, 0.0695800781, 0.0494384766, 0.1752929688, 0.0194091797, 0.0042419434, -0.0137329102, 0.1055297852, 0.1037597656, 0.0231933594, -0.1352539062, -0.0252685547, -0.0490722656, 0.1757812500, 0.1887207031, -0.0244140625, -0.1550292969, -0.0527343750, 0.1160888672, -0.0020141602, 0.0352783203, 0.0681152344, 0.2656555176, -0.0140838623, 0.0966796875, -0.0152587891, 0.0815429688, 0.0452423096, -0.0478515625, 0.0229492188, 0.1743164062, 0.1628417969, -0.0039062500, -0.0048828125, 0.0527343750, -0.0537109375, -0.1323242188, 0.0164794922, 0.2187500000, -0.0007324219, 0.0705566406, -0.0292968750, 0.1024169922, -0.0704345703, -0.1643066406, 0.0518798828, -0.1264648438, 0.1687011719, -0.0628662109, 0.1650390625, -0.0078125000, 0.1640625000, 0.1263885498, -0.0942382812, -0.1254882812, -0.0416259766, 0.1501464844, 0.0780029297, 0.0800781250, -0.1406250000, 0.0161132812, -0.0836791992, -0.0379028320, -0.1389160156, -0.2106933594, 0.1186523438, 0.0474853516, 0.1373291016, 0.1176757812, 0.0959472656, 0.0202636719, 0.0605468750, 0.1196289062, -0.0681152344, -0.0839843750, -0.0781250000, -0.0466308594, 0.1457519531, 0.1402587891, -0.0109863281, -0.0864257812, -0.0781250000, 0.1694335938, -0.0535888672, 0.0549316406, -0.0471191406, 0.2075195312, -0.0496826172, -0.0307617188, -0.0353393555, -0.0590820312, 0.1179199219, -0.1375732422, 0.0966186523, 0.1273803711, 0.2202148438, -0.0931396484, -0.1281738281, -0.0075683594, 0.0314941406, -0.0478515625, 0.0801086426, 0.0673828125, 0.0705566406, 0.0971679688, -0.1838378906, 0.0322265625, -0.1557617188, -0.1040039062, 0.0922851562, -0.1087646484, 0.1811523438, 0.0468750000, 0.1123046875, 0.2001953125, 0.1578216553, 0.1004943848, -0.0455322266, -0.0760498047, -0.0859375000, 0.1550292969, -0.0012207031, -0.0839843750, -0.2199707031, 0.0629882812, 0.0146484375, -0.0153808594, -0.0289306641, -0.1464843750, 0.0935859680, 0.1166992188, 0.1672363281, 0.0765380859, 0.0254516602, -0.0392456055, 0.0434570312, 0.1197509766, 0.0485839844, -0.0135498047, 0.0046844482, 0.0174560547, 0.0227050781, 0.1094970703, -0.0390319824, -0.0856933594, -0.0583496094, 0.1772460938, 0.0235595703, 0.0944213867, 0.0037841797, 0.2360839844, 0.0605468750, 0.0666503906, -0.1298828125, 0.0834960938, -0.0036621094, -0.1494140625, 0.0710449219, 0.0556640625, 0.1943359375, -0.0610351562, -0.0570068359, 0.0136718750, 0.0673828125, -0.1448974609, 0.1235351562, 0.2202148438, -0.0725097656, 0.0090332031, -0.1630859375, -0.0751953125, -0.0187988281, 0.0932617188, 0.0009765625, -0.1530761719, 0.0563964844, 0.0344238281, 0.1074218750, 0.0058593750, -0.0966796875, -0.0859375000, 0.0339965820, -0.1232910156, 0.0356445312, 0.0140380859, 0.1109619141, 0.0255126953, -0.0429687500, 0.0312500000, -0.0332031250, -0.0351562500, -0.0126342773, 0.0581054688, 0.0260620117, 0.0434570312, -0.0374755859, 0.2221679688, -0.0869140625, 0.0275878906, -0.0511474609, -0.1245117188, 0.0250244141, 0.0871582031, 0.0242919922, 0.0190429688, 0.0681152344, 0.0177001953, 0.1416015625, -0.0727539062, -0.0023193359, 0.1044921875, 0.0698242188, -0.0097656250, -0.0104980469, 0.0339355469, 0.0107421875, -0.0496826172, 0.0307617188, 0.0600585938, 0.0180664062, -0.0157470703, 0.0127563477, 0.0317382812, -0.1035156250, 0.0373840332, 0.1110839844, -0.0611572266, 0.0292968750, -0.0550384521, 0.0302734375, 0.0595703125, -0.0469131470, 0.0627441406, -0.0520019531, -0.0214843750, 0.0773925781, -0.0129394531, -0.0681152344, -0.1314849854, -0.0310058594, 0.0673828125, 0.1132812500, 0.0991210938, -0.0854492188, -0.1103515625, -0.0667419434, -0.0257568359, 0.0117187500, 0.0329589844, 0.0166015625, -0.0717773438, -0.0849609375, -0.0255737305, -0.0989990234, -0.0581054688, -0.2016601562, -0.1972656250, 0.0435791016, 0.1284179688, 0.0904541016, 0.1408691406, -0.0698242188, 0.0525054932, 0.0876464844, -0.0400390625, -0.0534667969, -0.0124511719, -0.0228271484, -0.0983886719, 0.1083374023, 0.1835327148, 0.0925292969, 0.0385742188, -0.0197753906, 0.0216064453, -0.0986328125, 0.1297531128, -0.1430664062, 0.3024902344, 0.0961914062, -0.0319824219, -0.0187988281, 0.0786132812, 0.1384277344, -0.0820922852, -0.0691528320, 0.0400390625, 0.0163574219, -0.0832519531, -0.0208740234, -0.0379638672, -0.1391601562, -0.0493164062, 0.0654296875, 0.0400390625, -0.1066894531, 0.0397949219, -0.0664062500, 0.0244140625, 0.1246337891, 0.0090332031, 0.0878906250, -0.1938476562, -0.0268554688, -0.0441894531, 0.1240234375, -0.0275878906, 0.0228881836, 0.0261230469, 0.0029296875, 0.0739746094, -0.0681152344, 0.2124023438, 0.0895996094, 0.0781250000, -0.0697784424, -0.0225830078, -0.0295410156, 0.0168457031, -0.0718994141, -0.2031250000, -0.0017089844, 0.1538085938, 0.1026000977, 0.3591308594, 0.0388183594, -0.0864257812, 0.1288452148, 0.1503906250, -0.1481933594, 0.0871582031, -0.0368652344, -0.0319824219, 0.0783691406, 0.1131591797, -0.0676269531, 0.0345458984, -0.0038452148, -0.1376953125, 0.0639648438, -0.0136718750, 0.0488281250, 0.2729492188, 0.0283203125, 0.2009277344, 0.0693359375, 0.0217895508, 0.1787109375, 0.0549316406, -0.1293945312, 0.1843261719, 0.0581054688, -0.0537109375, -0.1538085938, -0.0517578125, -0.0385742188, 0.1723632812, 0.2172851562, -0.0258789062, 0.0410156250, 0.0865478516, -0.1003417969, 0.0169982910, -0.0468750000, -0.0754394531, 0.1074829102, -0.1682128906, 0.0034179688, -0.0146484375, 0.0501708984, 0.0368652344, 0.0375976562, 0.0145263672, 0.0083007812, -0.0554199219, -0.1635742188, 0.1418457031, 0.0540771484, 0.0700683594, -0.1735839844, 0.0175781250, -0.0395507812, -0.0206298828, -0.0249023438, -0.1495971680, -0.0600585938, 0.1259765625, 0.0881958008, 0.2337036133, 0.1094017029, 0.0401611328, 0.0761718750, 0.1118164062, -0.0187988281, 0.0472869873, 0.0402832031, -0.0341796875, -0.0146484375, 0.0954589844, -0.0239257812, 0.0230712891, -0.1225585938, -0.0013427734, 0.1021728516, -0.0310058594, -0.0048828125, 0.1997070312, 0.0317993164, 0.2160644531, 0.0190429688, -0.0146484375, 0.1411132812, -0.1047363281, 0.0151367188, 0.1735839844, 0.2216796875, -0.1494140625, -0.1779785156, 0.0425415039, 0.0292968750, 0.0654296875, 0.0545654297, 0.0299072266, 0.0253906250, 0.2124023438, -0.1159667969, 0.2159423828, -0.1396484375, -0.0458984375, -0.0245361328, -0.0380859375, 0.0732421875, -0.0693359375, 0.0756835938, 0.1362304688, 0.1648559570, 0.1900634766, -0.1372070312, -0.1596679688, -0.0087890625, 0.1840209961, 0.0308227539, -0.1584472656, -0.2069091797, 0.0327148438, -0.0622558594, 0.0551757812, -0.2358398438, -0.2443847656, 0.2207031250, -0.0534667969, 0.0891113281, 0.1413574219, 0.0798339844, 0.2028808594, 0.0834960938, 0.1208496094, 0.1081542969, -0.0576171875, 0.0964355469, 0.1331787109, 0.1225585938, 0.1171875000, -0.1577148438, -0.0184326172, -0.1639404297, 0.1759338379, 0.0727539062, 0.1473999023, 0.1237792969, 0.1398925781, 0.0517578125, 0.0269165039, 0.0532226562, -0.0170288086, 0.0881347656, -0.2263183594, 0.0997314453, 0.0807495117, 0.1569824219, -0.1972656250, -0.0290527344, 0.1040039062, 0.1538085938, -0.0839843750, -0.0178222656, -0.0444335938, 0.0378417969, 0.1118469238, 0.0063476562, 0.0522460938, -0.2348632812, -0.0808372498, -0.0073242188, -0.1735839844, 0.0753173828, -0.1376953125, 0.0092773438, -0.0180664062, 0.1605224609, 0.1481933594, -0.0679931641, -0.1616210938, 0.0112304688, 0.0310058594, 0.0517578125, -0.1899414062, -0.1052856445, 0.0117187500, 0.0322265625, -0.0288696289, -0.1708984375, -0.0593261719, 0.1303710938, -0.0656738281, 0.1286621094, 0.1440429688, -0.0037841797, 0.1280517578, 0.1374511719, 0.1887207031, -0.0321044922, -0.2263183594, 0.1523437500, 0.0954589844, 0.1506347656, 0.0446777344, -0.0085449219, -0.0878906250, -0.2336425781, 0.1038818359, 0.0275878906, 0.1197509766, 0.1367187500, 0.0859375000, -0.0487060547, 0.0170898438, -0.0981445312, 0.0106201172, 0.1391601562, -0.2065429688, 0.1855468750, 0.0449218750, 0.1215820312, -0.1450195312, -0.0087890625, 0.0839843750, 0.1789550781, -0.1772460938, 0.0354003906, -0.0302734375, -0.0037841797, 0.0400390625, -0.1154785156, 0.0839843750, -0.1750907898, -0.1425781250, 0.1350097656, -0.0437011719, 0.1413574219, 0.0434570312, 0.1091308594, 0.0749511719, 0.1334228516, 0.1097412109, -0.1225585938, -0.1397705078, -0.0095214844, 0.1236572266, 0.0507812500, -0.1029663086, -0.1470947266, -0.0588378906, -0.0185546875, 0.0400390625, -0.1374511719, -0.0876464844, 0.1445846558, -0.0917968750, 0.1650390625, 0.1347656250, 0.1328125000, 0.1767578125, 0.0827636719, 0.1679687500, -0.0690917969, -0.1450500488, 0.1464843750, 0.0375976562, 0.1435546875, 0.0729980469, -0.0998535156, -0.0482177734, -0.1767578125, 0.0749511719, -0.0659179688, 0.1845703125, 0.1760253906, 0.1448364258, -0.0771484375, 0.1003417969, -0.1149902344, -0.0830078125, 0.0827636719, -0.1984863281, 0.1413574219, 0.0621337891, 0.2412109375, -0.0185546875, -0.0998535156, -0.0278320312, 0.1508789062, -0.1635742188, 0.0930175781, 0.0234375000, -0.0145874023, 0.0634460449, -0.0744628906, 0.0500488281, -0.1194458008, -0.0983886719, 0.0051269531, -0.0929565430, 0.0175781250, 0.0842285156, 0.0651855469, 0.0003662109, 0.1015014648, 0.0284423828, -0.0500488281, -0.1176147461, -0.0031738281, 0.0283203125, 0.0161132812, -0.0815429688, -0.0980987549, 0.0683593750, -0.0320892334, -0.0119400024, -0.0295410156, -0.1735839844, 0.1287841797, -0.0578613281, 0.1145019531, 0.0686035156, 0.0820770264, -0.0397949219, 0.0048828125, 0.0319824219, -0.0332031250, -0.0698242188, 0.1333007812, 0.1479492188, 0.1850585938, 0.0253906250, -0.0625000000, -0.0021972656, -0.0605468750, 0.0263671875, 0.0081787109, 0.1028747559, 0.0246582031, 0.0607910156, -0.0655517578, 0.0019531250, -0.0445556641, 0.0378417969, -0.0725097656, -0.0654296875, 0.0678710938, 0.0009765625, 0.0400390625, -0.0102539062, -0.0996093750, -0.0573730469, 0.0201416016, -0.0727539062, 0.0820922852, 0.0971679688, 0.0668945312, 0.0440673828, -0.0078125000, 0.1550292969, -0.0571289062, -0.1323242188, 0.0073242188, -0.0390625000, -0.0031738281, 0.0957031250, -0.0317382812, -0.0061035156, 0.1345214844, -0.0303955078, -0.1420898438, -0.0380306244, -0.0900878906, 0.0122070312, 0.1562500000, -0.1118164062, -0.1027908325, 0.0806884766, -0.0318908691, -0.0480957031, -0.0561523438, -0.0993652344, 0.1845703125, -0.0361328125, 0.0581054688, 0.0900878906, 0.1582031250, 0.0876464844, 0.0604858398, 0.1625976562, -0.0492553711, -0.0925292969, 0.1241455078, 0.1313476562, 0.1455078125, 0.1262207031, 0.0673828125, -0.0301513672, -0.1008033752, 0.0583496094, -0.0482177734, 0.0192871094, 0.1486816406, 0.0794677734, -0.0437622070, 0.0513916016, 0.0156250000, -0.0150146484, -0.0461425781, -0.0666503906, 0.0068969727, 0.0283203125, 0.0502929688, -0.1013183594, -0.0589599609, -0.0358886719, 0.0598144531, -0.1113739014, 0.0564575195, -0.0059204102, 0.0206298828, 0.1279296875, -0.0124511719, 0.1250000000, -0.0697631836, -0.0419921875, 0.0711669922, 0.0244140625, 0.0503234863, 0.0976562500, 0.0126342773, -0.0130920410, 0.0508117676, -0.0793457031, -0.0476074219, 0.0629882812, -0.0020599365, 0.1269531250, -0.0061035156, -0.0326843262, -0.0152587891, -0.0021972656, 0.0375976562, -0.0834960938, 0.0073242188, -0.0878906250, 0.0329589844, 0.0976562500, 0.0219726562, 0.0119934082, 0.0308837891, -0.0505371094, 0.0742187500, 0.1240234375, -0.1054687500, -0.0433044434, 0.0771684647, 0.0612487793, 0.1077880859, 0.0756225586, 0.0656738281, 0.0165405273, -0.0950927734, -0.0034179688, -0.0554199219, 0.0569410324, 0.1206054688, 0.1296386719, -0.0479736328, 0.1081542969, -0.0305175781, -0.0242309570, 0.0411376953, -0.0394287109, 0.0156250000, 0.1296386719, 0.0946044922, -0.0108642578, 0.0217285156, 0.0805664062, -0.0246582031, -0.0592956543, 0.1169433594, 0.0603027344, 0.0162963867, 0.0520019531, -0.0727539062, 0.0732421875, 0.0080566406, 0.0537109375, -0.0164794922, 0.0788574219, -0.0308837891, 0.0793457031, -0.0603027344, 0.0681152344, -0.0391845703, 0.0695800781, 0.0327148438, 0.0588378906, 0.0500488281, 0.0820312500, 0.0458984375, -0.0490722656, -0.0361328125, -0.0517578125, 0.0088500977, 0.0637207031, -0.0488281250, -0.0646972656, -0.0493164062, 0.0407714844, -0.0500488281, 0.0517578125, 0.0012512207, 0.0395507812, -0.0610351562, 0.0219726562, 0.0028839111, 0.0184936523, 0.0610351562, 0.0778808594, 0.0449218750, -0.0446777344, -0.0191040039, 0.0166015625, 0.0250244141, -0.0808105469, 0.0192260742, -0.0057678223, 0.0649414062, 0.0761718750, -0.0360107422, -0.0566406250, -0.0632324219, -0.0786132812, -0.0200805664, -0.0678710938, -0.0729980469, -0.0224609375, 0.0781250000, -0.0825195312, 0.0169067383, 0.0285644531, -0.0434570312, -0.0131835938, -0.0177612305, -0.0639648438, -0.0366210938, -0.0136718750, -0.0598144531, -0.0820312500, -0.0830078125, 0.0275878906, 0.0126342773, 0.0834960938, 0.0391845703, 0.0343017578, -0.0698242188, 0.0747070312, 0.0832519531, 0.0390625000, 0.0233154297, -0.0800781250, 0.0554199219, 0.0190429688, 0.0144042969, -0.0476074219, 0.0581054688, 0.0058288574, -0.0573730469, 0.0747070312, 0.0130004883, 0.0263671875, 0.0554199219, 0.0020980835, -0.0488281250, -0.0437011719, -0.0639648438, 0.0098266602, -0.0773925781, 0.0573730469, -0.0632324219, -0.0729980469, -0.0720214844, 0.0805664062, -0.0417480469, 0.0793457031, 0.0583496094, -0.0141601562, 0.0815429688, 0.0642089844, 0.0617675781, 0.0188598633, 0.0769042969, 0.0830078125, -0.0505371094, -0.0057983398, 0.0515136719, -0.0316162109, 0.0715332031, -0.0363769531, 0.0371093750, 0.0346679688, -0.0380859375, 0.0581054688, -0.0273437500, -0.0076599121, -0.0693359375, 0.0128784180, 0.0493164062, -0.0363769531, 0.0490722656, -0.0688476562, 0.0372314453, -0.0050659180, 0.0798339844, 0.0339355469, -0.0369873047, 0.0184326172, 0.0444335938, -0.0222167969, 0.0159301758, -0.0625000000, -0.0250244141, -0.0346679688, 0.0143432617, -0.0620117188, -0.0786132812, 0.0231933594, -0.0607910156, -0.0086975098, 0.0449218750, -0.0510253906, 0.0234375000, 0.0349121094, 0.0177612305, 0.0408935547, 0.0549316406, -0.0656738281, 0.0654296875, 0.0267333984, 0.0163574219, 0.0568847656, -0.0629882812, -0.0693359375, 0.0478515625, -0.0524902344, -0.0089721680, -0.0493164062, -0.0283203125, 0.0122680664, 0.0825195312, -0.0524902344, 0.0006103516, 0.0195312500, -0.0354003906, 0.0027160645, 0.0217285156, -0.0296630859, -0.0529785156, 0.0260009766, -0.0532226562, -0.0717773438, 0.0262451172, 0.0007324219, -0.0773925781, 0.0014419556, -0.0296630859, -0.0268554688, -0.0471191406, -0.0673828125, 0.0043792725, -0.0268554688, -0.0139770508, -0.0006656647, 0.0382080078, 0.0432128906, -0.0708007812, -0.0173950195, 0.0211181641, -0.0434570312, 0.0156250000, -0.0169677734, 0.0566406250, -0.0690917969, 0.0424804688, -0.0783691406, 0.0732421875, -0.0262451172, -0.0507812500, 0.0073242188, -0.0778808594, 0.0563964844, -0.0588378906, -0.0476074219, -0.0527343750, 0.0329589844, 0.0233154297, -0.0576171875, -0.0173950195, 0.0705566406, 0.0286865234, -0.0615234375, 0.0507812500, 0.0603027344, 0.0603027344, -0.0703125000, 0.0230712891, -0.0637207031, -0.0060729980, -0.0603027344, -0.0086975098, 0.0476074219, 0.0717773438, 0.0610351562, -0.0041046143, 0.0253906250, -0.0810546875, 0.0490722656, -0.0581054688, -0.0598144531, -0.0044250488, -0.0607910156, -0.0172729492, -0.0798339844, 0.0360107422, -0.0595703125, -0.0208129883, -0.0399169922, 0.0720214844, -0.0266113281, 0.0612792969, -0.0166015625, -0.0159301758, 0.0222167969, -0.0167236328, -0.0505371094, -0.0810546875, -0.0423583984, 0.0306396484, 0.0245361328, -0.0412597656, 0.0749511719, 0.0016250610, -0.0410156250, -0.0171508789, 0.0617675781, 0.0703125000, -0.0166625977, 0.0637207031, -0.0418701172, 0.0032806396, 0.0815429688, -0.0751953125, 0.0382080078, 0.0568847656, -0.0005321503, -0.0137329102, 0.0590820312, 0.0273437500, 0.0751953125, -0.0429687500, 0.0111083984, 0.0839843750, -0.0683593750, -0.0235595703, -0.0235595703, 0.0537109375, 0.0683593750, 0.0756835938, 0.0588378906, -0.0532226562, 0.0170898438, -0.0249023438, 0.0332031250, 0.0551757812, -0.0307617188, -0.0837402344, 0.0054626465, 0.0681152344, 0.0527343750, 0.0573730469, 0.0773925781, -0.0666503906, -0.0595703125, -0.0458984375, -0.0085449219, 0.0510253906, -0.0130004883, -0.0095825195, -0.0729980469, -0.0406494141, -0.0749511719, -0.0060119629, -0.0078735352, -0.0825195312, -0.0625000000, 0.0649414062, 0.0126953125, -0.0839843750, -0.0480957031, 0.0277099609, -0.0805664062, -0.0015335083, -0.0116577148, 0.0028533936, -0.0583496094, 0.0003395081, 0.0639648438, -0.0703125000, -0.0825195312, -0.0383300781, 0.0361328125, 0.0825195312, 0.0783691406, 0.0086364746, 0.0729980469, -0.0817871094, 0.0512695312, 0.0671386719, -0.0263671875, -0.0238037109, -0.0483398438, -0.0449218750, 0.0177001953, -0.0720214844, 0.0754394531, 0.0047302246, -0.0151367188, -0.0563964844, 0.0321044922, 0.0404052734, 0.0183105469, -0.0290527344, 0.0186767578, 0.0439453125, 0.0700683594, 0.0240478516, -0.0375976562, 0.0593261719, -0.0725097656, 0.0013580322, -0.0839843750, -0.0715332031, -0.0067443848, -0.0458984375, 0.0367431641, 0.0786132812, -0.0086669922, -0.0822753906, 0.0341796875, 0.0568847656, -0.0600585938, -0.0471191406, -0.0350341797, 0.0488281250, 0.0231933594, -0.0089721680, -0.0319824219, -0.0429687500, 0.0695800781, 0.0622558594, 0.0451660156, 0.0360107422, 0.0257568359, -0.0180053711, 0.0727539062, -0.0617675781, -0.0113525391, -0.0202026367, -0.0422363281, 0.0556640625, -0.0490722656, 0.0795898438, 0.0181884766, -0.0211181641, -0.0766601562, 0.0330810547, 0.0739746094, -0.0242919922, 0.0167846680, -0.0449218750, -0.0134887695, -0.0556640625, 0.0062561035, 0.0598144531, -0.0405273438, -0.0487060547, 0.0422363281, 0.0512695312, 0.0747070312, -0.0986328125, 0.0186767578, -0.0364990234, -0.0278320312, 0.0546875000, -0.0454101562, -0.0042114258, -0.0249023438, -0.0261230469, 0.0093841553, 0.0228271484, 0.0539550781, 0.0284423828, 0.0274658203, -0.0269775391, 0.0255737305, 0.0026092529, 0.0510253906, -0.0666503906, 0.0001831055, 0.0585937500, -0.0588378906, 0.0406494141, 0.0031433105, 0.0401611328, -0.0005683899, -0.0377197266, 0.0120239258, -0.0028381348, 0.0659179688, -0.0091247559, -0.0073547363, -0.0671386719, 0.0109252930, 0.0610351562, -0.0300292969, 0.0505371094, 0.0715332031, 0.0482177734, -0.0224609375, 0.0622558594, -0.0571289062, 0.0155029297, -0.0646972656, 0.0171508789, -0.0922851562, -0.0095214844, -0.1198730469, 0.1240234375, 0.0948486328, 0.1169433594, -0.0451660156, 0.0236206055, 0.0192871094, 0.0917968750, -0.0095214844, -0.0183715820, 0.0548095703, -0.0537109375, -0.0058593750, -0.1376953125, -0.0193862915, -0.0163574219, -0.0712890625, 0.0263671875, -0.0941162109, -0.0017089844, 0.0646972656, 0.1311035156, 0.0016479492, -0.0028076172, -0.0538330078, 0.0101318359, -0.0048828125, -0.1342773438, 0.0458374023, 0.0043945312, 0.1215820312, -0.0455932617, 0.1047363281, -0.0754394531, 0.0469970703, -0.0578155518, -0.0621337891, 0.0178222656, 0.0563964844, 0.0270996094, -0.0473632812, -0.0253906250, 0.0842285156, -0.1057128906, -0.0523681641, 0.0566406250, 0.0068359375, -0.0328979492, 0.0526733398, -0.0097656250, -0.0816650391, -0.0781250000, 0.0776367188, -0.0914306641, 0.0970458984, -0.0087890625, 0.0339355469, -0.0010223389, 0.0274658203, -0.0415039062, 0.0603027344, -0.0246582031, -0.1110839844, -0.0073242188, -0.0526733398, 0.0855712891, 0.1015625000, 0.0468292236, 0.1098632812, 0.1198730469, 0.0764160156, 0.0424804688, 0.0803222656, 0.0343017578, 0.1206054688, -0.0316162109, -0.0456542969, -0.1484375000, -0.0690917969, -0.0737304688, -0.0656738281, -0.0837402344, -0.1232910156, 0.0448608398, 0.0249023438, 0.0979003906, 0.0847167969, -0.0498046875, 0.0143432617, 0.1372070312, 0.0802307129, 0.0119628906, -0.0788574219, -0.0456542969, 0.1176757812, 0.0952148438, 0.0916748047, 0.0144042969, -0.0509643555, -0.1116943359, 0.0715332031, -0.0126037598, -0.0192871094, -0.0002441406, 0.1264648438, -0.0971679688, 0.0727539062, -0.0366401672, -0.0964355469, 0.0708007812, -0.1435546875, -0.0383300781, 0.1420898438, 0.0883789062, 0.0046386719, 0.0152587891, -0.0034790039, -0.0255584717, -0.0640258789, 0.0000000000, -0.0501708984, -0.0722656250, -0.0349121094, -0.0493469238, 0.0705566406, -0.0895996094, -0.1162109375, -0.0118408203, -0.0229492188, -0.0346679688, 0.0111083984, -0.0583496094, 0.0361366272, 0.0979003906, -0.0441894531, -0.0177307129, -0.0295104980, -0.0285644531, 0.0072021484, 0.0223999023, -0.0438842773, -0.0234985352, 0.0869140625, -0.0820312500, 0.0212402344, 0.0046386719, -0.1191406250, 0.0631103516, -0.0432128906, 0.0505218506, 0.0920410156, 0.0854492188, 0.0065917969, 0.0649414062, 0.0241699219, -0.0201416016, -0.0496826172, -0.0097656250, -0.0020141602, 0.0150146484, 0.0986328125, -0.1076660156, 0.0028686523, -0.0219879150, -0.0515136719, -0.0182189941, 0.1149902344, 0.0197143555, 0.0131225586, -0.0773925781, 0.0114135742, 0.0220336914, -0.0576171875, -0.0524902344, -0.0073242188, -0.0076904297, -0.0156250000, 0.0527954102, -0.0881347656, -0.0505371094, 0.0347290039, -0.0010375977, -0.0649414062, -0.0053710938, -0.0261230469, -0.1008300781, 0.1762695312, -0.2041015625, 0.0969238281, 0.0114746094, 0.0048828125, -0.0502929688, -0.0061645508, 0.0834960938, 0.0085449219, -0.0052490234, 0.0874023438, 0.1936035156, 0.0386352539, -0.0511837006, -0.0031738281, 0.0135498047, 0.1574707031, 0.0921630859, -0.0328369141, -0.1018066406, -0.0065917969, -0.0327148438, -0.1442871094, -0.0334472656, -0.0909423828, 0.0297851562, -0.0729980469, 0.1699218750, 0.0190429688, 0.1599121094, 0.0573730469, 0.0118408203, 0.0866699219, -0.0786132812, -0.0070800781, 0.0444335938, -0.0427246094, 0.0975952148, -0.0124511719, -0.0642089844, 0.0544433594, -0.1301269531, 0.0787353516, -0.0151519775, 0.0659179688, 0.1340332031, 0.2026367188, -0.1044921875, 0.0117187500, 0.0174560547, 0.0498046875, 0.0998535156, -0.1687011719, 0.0805664062, -0.0703125000, 0.0352783203, -0.0104980469, 0.0026855469, 0.0066833496, -0.0632324219, -0.1127929688, 0.0653991699, 0.0429687500, -0.0543518066, 0.2109375000, -0.1247558594, 0.0830078125, -0.0691909790, -0.0827636719, 0.1340332031, -0.1418457031, 0.1281738281, -0.0544433594, 0.0693778992, 0.0090332031, 0.1171875000, 0.1369628906, -0.0456542969, -0.0320434570, -0.0068359375, 0.1603393555, 0.0700683594, -0.0371093750, -0.2463378906, -0.0107421875, -0.1604003906, 0.0261230469, -0.2250976562, -0.1909179688, 0.0212402344, 0.0446777344, 0.1220703125, 0.0767822266, 0.2651367188, -0.0051460266, 0.0656738281, 0.1801147461, -0.0596313477, -0.0651245117, 0.0551757812, 0.0954589844, 0.1553955078, 0.1455078125, -0.1171875000, 0.0441894531, -0.1103515625, -0.0244140625, -0.0136718750, 0.2121582031, 0.1242675781, 0.2534179688, -0.0584716797, -0.0449218750, 0.0573730469, -0.0108642578, 0.1362304688, -0.1479492188, 0.0063476562, -0.0214843750, 0.1129150391, -0.0505371094, -0.1226806641, 0.0788574219, 0.0368652344, -0.1181640625, 0.0883789062, -0.0114746094, 0.0268554688, 0.0632324219, -0.1486816406, 0.0814819336, -0.0520019531, -0.1320800781, 0.0422363281, -0.0859069824, 0.0185546875, -0.0698547363, 0.0946044922, 0.0484619141, 0.1668701172, 0.0830688477, -0.1604003906, 0.0375976562, -0.0454711914, 0.0249023438, 0.1503906250, -0.1157226562, -0.2128906250, 0.0273437500, -0.0833740234, -0.0502700806, -0.1469116211, -0.1845703125, 0.0092773438, 0.0589599609, 0.1300048828, -0.0726318359, 0.1751098633, -0.0169677734, 0.0568847656, 0.1298828125, -0.1166992188, -0.1027832031, 0.1917724609, 0.0345458984, 0.0827636719, 0.1062011719, 0.0054931641, -0.0004882812, -0.1120605469, 0.0791015625, 0.1027832031, 0.2269287109, 0.2050781250, 0.1437988281, -0.0383300781, 0.1228027344, 0.1429443359, 0.0070800781, 0.1484375000, -0.1752929688, 0.0620117188, 0.1149902344, 0.1303710938, -0.1752929688, -0.0380859375, -0.1269531250, -0.0532226562, -0.1472167969, 0.1214904785, 0.1223144531, -0.0689849854, 0.0605468750, -0.1203613281, 0.0804443359, 0.1291503906, -0.0136718750, 0.0712890625, -0.1855468750, 0.0358886719, -0.1123046875, 0.1396484375, -0.1005859375, 0.0991210938, 0.1015625000, -0.0434570312, -0.0103149414, -0.0980224609, 0.0347452164, 0.0439453125, -0.0068969727, -0.2128906250, 0.1025390625, -0.0686035156, -0.1135253906, -0.1733398438, -0.1379394531, 0.0363388062, 0.0810546875, 0.1802062988, -0.1457519531, 0.1182861328, -0.0819854736, 0.0854492188, 0.0812988281, 0.0603027344, 0.0150146484, 0.2005538940, 0.0075683594, 0.1669921875, 0.0417480469, 0.0263671875, 0.0483398438, 0.0666503906, -0.0854492188, 0.1076660156, 0.2172851562, 0.1232910156, -0.0666503906, -0.0185546875, 0.0174560547, 0.1962280273, 0.1533203125, 0.0739135742, -0.0864257812, -0.0053710938, 0.1262207031, 0.0041503906, -0.1223144531, -0.1115722656, -0.1550292969, 0.0524902344, -0.0942459106, 0.1757812500, 0.0891113281, -0.0341796875, 0.1213378906, -0.1752777100, 0.1490478516, 0.0964355469, -0.1452636719, 0.0447540283, -0.0825195312, 0.1445922852, -0.1511230469, 0.1801757812, -0.0258789062, 0.0971679688, 0.0600585938, -0.2116699219, -0.1164550781, -0.0841064453, 0.1040954590, 0.1923828125, -0.0847167969, -0.1629638672, 0.0520019531, 0.0043945312, -0.1921386719, -0.1445312500, -0.0947265625, 0.0192871094, 0.0307617188, 0.1765136719, -0.0977478027, 0.1873779297, -0.0501708984, 0.2165527344, 0.0747070312, 0.0288085938, 0.0024414062, 0.1677246094, -0.0925292969, 0.1284179688, 0.1354980469, -0.0370483398, 0.0767517090, -0.1525878906, 0.1132812500, 0.0003662109, 0.1580200195, 0.1118164062, 0.1184082031, -0.0104370117, -0.0090332031, 0.2419433594, 0.0870361328, 0.1181640625, -0.2253417969, -0.0683593750, 0.0646972656, -0.0200195312, -0.0861816406, -0.1685791016, -0.0897216797, 0.0908203125, -0.2158203125, 0.0705566406, 0.2002716064, -0.1439819336, 0.0935058594, -0.2179565430, 0.1818237305, 0.1220703125, -0.1118164062, -0.0522460938, -0.2363281250, 0.1256103516, -0.1182861328, 0.1383666992, 0.0168457031, 0.1875000000, 0.1414871216, -0.1629638672, -0.1213378906, 0.0297851562, 0.0847167969, 0.0600585938, -0.2005615234, -0.1986694336, 0.0847167969, -0.0407714844, -0.0722656250, -0.1625976562, -0.2266235352, 0.0451660156, 0.0405273438, 0.2722167969, -0.0014648438, 0.1909179688, -0.0316162109, 0.2470703125, 0.1369628906, 0.0554199219, -0.1076660156, 0.1520996094, -0.0551147461, 0.2177734375, 0.0346679688, -0.1186370850, 0.0979003906, -0.1550292969, 0.1262207031, 0.0174255371, 0.1269531250, 0.1154785156, 0.1949462891, -0.0219726562, -0.0342063904, 0.1850585938, 0.0969238281, 0.2053222656, -0.1013183594, 0.0743408203, 0.1273193359, 0.0141601562, -0.0827636719, -0.0761718750, -0.0625000000, 0.0611572266, -0.1367187500, 0.0662841797, 0.1423645020, -0.1196899414, 0.1054687500, -0.3217773438, 0.2045898438, 0.1495361328, -0.1181640625, 0.0444335938, -0.1817626953, 0.0085449219, -0.0134277344, 0.1749267578, 0.0305175781, 0.0786132812, 0.0261230469, -0.2387695312, 0.0415039062, -0.0798339844, 0.0170898438, 0.1207733154, -0.1813964844, -0.2783203125, 0.1635742188, -0.1181640625, -0.1074218750, -0.2312011719, -0.1652221680, 0.0678710938, -0.0820312500, 0.1130371094, 0.0246582031, 0.1624755859, -0.1704101562, 0.1264648438, 0.1400146484, -0.0327148438, -0.0020751953, 0.2187500000, -0.0369262695, 0.0922851562, 0.0224609375, -0.0368652344, 0.0732421875, -0.0532226562, 0.0220947266, 0.0465087891, 0.1478271484, 0.0249023438, 0.1689453125, -0.0651855469, -0.1152343750, 0.1293945312, -0.0166015625, 0.1196289062, -0.1750488281, 0.0893554688, 0.1273193359, -0.0046386719, -0.0222167969, -0.1757812500, -0.0297851562, 0.0180664062, -0.0288085938, 0.0686035156, 0.1552734375, -0.0722656250, 0.0437011719, -0.3601074219, 0.0965576172, 0.1204223633, -0.2138671875, -0.0808105469, -0.2285156250, -0.0351562500, 0.0778808594, 0.1398925781, 0.0891113281, 0.0443725586, 0.0212402344, -0.1420898438, -0.0205078125, -0.2463378906, 0.0170898438, 0.1322326660, -0.0688476562, -0.2041015625, 0.0771484375, -0.1794433594, -0.0273437500, -0.1752929688, -0.1779174805, 0.0864257812, -0.0832519531, 0.0881347656, 0.0754394531, 0.0090332031, -0.1174926758, -0.0737304688, -0.0161132812, 0.0327148438, -0.0535888672, 0.1653442383, -0.1128444672, 0.1347045898, 0.1584472656, -0.0340270996, 0.0041503906, -0.1381835938, 0.0078125000, 0.0517578125, 0.1547851562, 0.1464843750, 0.2031555176, 0.0395507812, -0.2084960938, 0.1098632812, -0.0817871094, 0.0427246094, 0.0034179688, -0.0205078125, 0.1240234375, 0.0073242188, -0.0321044922, -0.1889648438, -0.0092773438, 0.0935058594, -0.1146850586, 0.1237792969, 0.1197509766, -0.0940551758, -0.0375976562, -0.3425292969, 0.1114501953, 0.1291503906, -0.0568847656, -0.1322784424, -0.1308593750, -0.1235351562, 0.0424804688, 0.0570068359, 0.1791992188, 0.0948791504, -0.0134277344, -0.0593261719, -0.1059570312, -0.0655517578, 0.1191406250, 0.2093505859, -0.0456542969, -0.1429443359, 0.0666503906, -0.1550903320, -0.0973815918, -0.0612792969, -0.1669921875, 0.1033935547, -0.0104980469, 0.1320800781, 0.1029052734, 0.0175781250, -0.0231933594, 0.0258789062, 0.1308593750, 0.1037597656, 0.0371093750, 0.2301025391, -0.2197265625, 0.1542968750, 0.1352539062, -0.1337890625, -0.0443115234, -0.0134277344, 0.0112304688, 0.0395507812, 0.2700195312, 0.1223144531, 0.1259460449, 0.0138397217, -0.2438964844, 0.0576171875, -0.0405731201, 0.0565185547, 0.0311279297, 0.0496520996, -0.0074462891, -0.0153808594, -0.0727539062, -0.1494140625, -0.1411132812, 0.0917968750, -0.1690063477, 0.0989379883, 0.0600585938, -0.0537109375, 0.0238647461, -0.2014770508, 0.2189941406, 0.2517089844, -0.0349121094, -0.1215209961, -0.1802978516, -0.0951385498, 0.0322265625, 0.0678710938, 0.1357421875, -0.0234375000, -0.0428771973, -0.1037597656, -0.0682373047, 0.0073242188, 0.0712890625, 0.1670532227, -0.2023925781, -0.1100463867, 0.1260986328, -0.1136474609, -0.1010742188, -0.1811523438, -0.2036132812, 0.1455078125, -0.0626373291, 0.0136718750, 0.1248779297, 0.0852050781, 0.0302734375, -0.0455322266, 0.0717773438, -0.0164794922, 0.0329589844, 0.1628417969, -0.2204589844, 0.1101074219, 0.0720214844, 0.0117492676, -0.0217285156, -0.0881347656, 0.1713867188, 0.0507812500, 0.2302246094, 0.0868134499, 0.1506347656, -0.1064453125, -0.1578369141, 0.1011962891, -0.0671386719, -0.0776367188, -0.0356445312, 0.0393066406, 0.0646972656, -0.0351562500, -0.0751953125, 0.0554199219, -0.0725097656, 0.0598754883, -0.1665039062, 0.1349487305, -0.0555419922, -0.1019287109, 0.0612792969, -0.1920166016, 0.0642089844, 0.0729980469, -0.0912780762, -0.0457763672, -0.1934814453, -0.0883789062, -0.0485229492, -0.0273437500, 0.0422363281, 0.0310058594, -0.1164550781, -0.1713256836, -0.0849609375, 0.0363769531, 0.0549316406, 0.2180175781, -0.0832519531, 0.0112304688, 0.0886383057, -0.0202636719, 0.0352783203, -0.1425781250, -0.1956176758, 0.0239257812, -0.1004638672, 0.1081542969, 0.1765136719, 0.0422363281, -0.0171051025, -0.0156250000, 0.0859375000, -0.0447998047, -0.0404052734, 0.1458129883, -0.1796875000, 0.1137390137, 0.0727539062, 0.0037841797, -0.0500488281, 0.0236816406, 0.0185546875, 0.1173095703, 0.2644042969, 0.0452880859, 0.2092895508, -0.0778808594, -0.0568847656, -0.0205078125, -0.0380859375, -0.0966796875, -0.0449218750, -0.1181640625, 0.0576171875, 0.0668945312, -0.0461425781, 0.0019531250, 0.0131835938, 0.0421371460, -0.1818847656, 0.0532226562, -0.2441406250, -0.0473632812, 0.0195312500, -0.1013183594, 0.0944824219, 0.0146484375, -0.1308593750, 0.1042480469, -0.1662597656, -0.1801757812, -0.0451660156, -0.0227890015, -0.1237792969, -0.0435791016, 0.0382080078, -0.1197509766, -0.0898437500, -0.0324707031, 0.1173095703, 0.1633300781, -0.0097656250, -0.0625000000, 0.0520229340, -0.0759887695, 0.0827636719, -0.0273437500, -0.2224121094, 0.1071777344, -0.0734863281, 0.1323242188, 0.2229003906, 0.0428161621, 0.0441894531, 0.0336914062, -0.0605468750, 0.0157470703, -0.1318359375, 0.0649948120, -0.1292724609, 0.0742187500, 0.1403808594, -0.0769042969, -0.1179809570, 0.0717773438, 0.0768432617, 0.0283813477, 0.1508789062, 0.0532226562, 0.0871582031, -0.0771484375, 0.0043945312, 0.1420898438, -0.0981445312, 0.1083984375, -0.0174560547, 0.0334472656, -0.0299072266, 0.1051025391, 0.0722656250, 0.0539550781, -0.0085449219, 0.0139160156, -0.1060791016, -0.0327148438, -0.2043457031, 0.0725097656, 0.1120605469, 0.0903320312, 0.0102539062, -0.1345214844, -0.0421142578, 0.1090087891, -0.0863952637, 0.0205688477, -0.0905761719, 0.0488281250, -0.0541992188, 0.0363769531, 0.0209960938, -0.1131134033, -0.0012207031, -0.1489257812, 0.1145019531, -0.0263671875, 0.0507812500, -0.1203613281, 0.0622558594, -0.1201171875, 0.0533142090, -0.1271972656, -0.2196044922, 0.1282806396, -0.0869140625, 0.0653076172, 0.0485839844, -0.0278320312, 0.0193481445, 0.0234375000, 0.0781250000, -0.0410156250, -0.0131835938, -0.0424804688, 0.0002441406, 0.0004882812, 0.0621337891, 0.0607910156, -0.0600585938, -0.0483398438, 0.0943603516, 0.0766601562, 0.1164245605, 0.0882568359, 0.2319335938, -0.0450439453, 0.0203857422, 0.0605468750, 0.0085945129, 0.0939865112, -0.0505371094, 0.0522460938, -0.0029144287, 0.1288452148, -0.0236816406, -0.0817871094, 0.0981445312, 0.1166992188, -0.0968017578, -0.0830078125, -0.1593322754, 0.0249023438, 0.0834960938, -0.0288085938, 0.1293945312, -0.2285766602, -0.0068359375, -0.0166015625, -0.1436767578, 0.1441650391, -0.0764160156, -0.1083984375, -0.0119628906, 0.0568847656, 0.0369262695, -0.1247558594, -0.1398315430, -0.0987548828, 0.1270141602, 0.1232910156, -0.1313476562, -0.1109619141, -0.0090007782, -0.1528320312, 0.0832824707, -0.1063232422, -0.1230468750, 0.1520996094, -0.0864257812, -0.0322265625, 0.0834350586, 0.0283203125, -0.0205078125, -0.0742187500, 0.0795898438, 0.0471191406, -0.2238769531, -0.0561523438, -0.0131835938, 0.1074218750, 0.0937805176, 0.0183105469, -0.0556640625, -0.0100097656, 0.1839599609, -0.1059570312, 0.0388183594, 0.1083984375, 0.2031250000, -0.1381835938, -0.0546875000, -0.0585937500, -0.0864257812, -0.0102539062, -0.1405334473, -0.0241699219, 0.1806640625, 0.1798095703, -0.0458984375, 0.0891113281, 0.1359863281, 0.1806640625, -0.2810058594, -0.0888061523, -0.1745605469, 0.0385742188, 0.1523437500, 0.1010742188, 0.0236816406, -0.2094898224, -0.1520996094, -0.0268554688, -0.0314941406, 0.2827148438, 0.0083007812, 0.0559082031, -0.1359863281, 0.0358886719, 0.0766601562, -0.1416740417, -0.1671142578, -0.0477294922, 0.0166015625, 0.0503540039, -0.1051177979, -0.1560058594, 0.0549316406, -0.0948486328, 0.0168457031, -0.0512695312, -0.1419677734, 0.1191406250, -0.1566162109, 0.0532836914, 0.0675048828, 0.1289062500, 0.0725097656, 0.0111694336, 0.0684814453, 0.0558471680, -0.0864257812, 0.0620117188, 0.0498046875, 0.1489257812, 0.0586547852, -0.0021972656, 0.0041503906, 0.0393066406, 0.1599121094, -0.0419311523, 0.1094512939, 0.0730590820, 0.1379394531, -0.1147460938, -0.0205078125, 0.0925292969, 0.0124511719, -0.0207519531, -0.1660156250, 0.1166992188, 0.2145996094, 0.1065673828, -0.0015869141, 0.0202636719, -0.0287475586, 0.0771484375, -0.1467285156, -0.0177764893, 0.0071258545, 0.1083984375, -0.0126953125, -0.0129394531, 0.0802001953, -0.3173828125, -0.1227226257, -0.0050354004, -0.0595703125, 0.2207031250, -0.1318359375, 0.0511474609, -0.0283203125, 0.1017150879, 0.1601562500, -0.1026611328, -0.1895751953, -0.1101074219, 0.1425781250, 0.0231933594, -0.1933593750, -0.1794433594, 0.0697021484, 0.0097656250, 0.0944824219, -0.0627441406, -0.1052246094, 0.2151489258, -0.0368652344, 0.0731201172, -0.0131835938, 0.0724487305, 0.0087890625, -0.0112304688, 0.1528320312, 0.0314941406, -0.1953125000, 0.0605468750, -0.0008087158, 0.1234130859, 0.1215209961, 0.0056152344, 0.0000000000, -0.0153808594, 0.1221923828, -0.0854492188, 0.1348266602, 0.1992187500, 0.0328369141, 0.0537109375, -0.0105895996, 0.1159934998, -0.0324707031, -0.0878906250, -0.0994567871, 0.1324462891, 0.1599121094, 0.1904296875, -0.0953979492, -0.1826171875, 0.0488281250, 0.0783081055, -0.1059570312, -0.0590820312, -0.0463256836, -0.0198974609, 0.0756530762, -0.0605468750, 0.0539550781, -0.1931304932, -0.1322021484, 0.0134277344, -0.1307373047, 0.1641845703, 0.0537109375, 0.0515136719, 0.0910034180, 0.0977783203, 0.0410156250, -0.1579589844, -0.1218261719, -0.0542602539, 0.1806640625, 0.0938720703, -0.1212158203, -0.1640625000, -0.0322265625, -0.0109863281, 0.0677490234, -0.0229492188, -0.0856933594, 0.1057128906, -0.1518554688, 0.0224609375, 0.1105957031, 0.1411132812, -0.0051269531, 0.0226440430, 0.0887451172, -0.0153808594, -0.1201171875, 0.0251464844, -0.0405273438, 0.1282958984, 0.1510009766, -0.0447387695, -0.0245971680, -0.0263671875, 0.1482238770, -0.0397949219, 0.1026611328, 0.0727539062, 0.0510253906, -0.0769042969, -0.0004882812, -0.0395507812, 0.0004882812, -0.0743408203, -0.1206054688, 0.0429687500, 0.2006835938, 0.1756591797, -0.0371093750, -0.0014648438, 0.0317382812, 0.1506042480, -0.1596679688, -0.0297851562, -0.0876464844, -0.0392303467, 0.0800018311, -0.0830078125, 0.1036376953, -0.1879978180, -0.1420898438, -0.0126953125, -0.0222167969, 0.1671295166, -0.0808105469, 0.0009765625, -0.0187988281, 0.1140136719, 0.0390625000, -0.2268066406, -0.0918245316, -0.1223144531, 0.0847167969, 0.1315917969, -0.0549621582, -0.2041015625, 0.1159667969, -0.0474853516, 0.0634765625, -0.1660156250, -0.0798339844, 0.1369628906, -0.0827636719, 0.1324462891, 0.0190429688, 0.0888671875, 0.0076980591, -0.0112304688, 0.1066284180, -0.0058593750, -0.0039062500, 0.0290527344, -0.0588378906, 0.0893859863, 0.0390625000, -0.1022949219, 0.0110168457, -0.0290527344, 0.1046142578, -0.0124511719, 0.1186523438, 0.1109008789, 0.0976562500, -0.0778808594, 0.0151367188, 0.1635742188, 0.0142822266, 0.1137695312, -0.1400756836, 0.0883789062, 0.1989746094, 0.1204833984, -0.0278320312, -0.1407470703, 0.0590820312, 0.1026611328, -0.0892333984, 0.0867004395, -0.0231933594, -0.0817871094, 0.0351562500, -0.0310058594, -0.0155639648, -0.0544738770, -0.0344238281, 0.0238037109, 0.0517578125, 0.1450195312, 0.0255126953, 0.0439453125, -0.0375976562, -0.0593261719, -0.1086425781, -0.1291503906, 0.0242919922, -0.0302734375, -0.0153503418, 0.1718750000, -0.0380859375, -0.1013183594, 0.1623535156, 0.0539550781, -0.0756835938, -0.0321044922, -0.1115722656, -0.0603027344, 0.0981445312, 0.0947265625, -0.0955810547, 0.0688476562, 0.0283203125, 0.0353393555, 0.0495605469, -0.0876464844, 0.0305786133, 0.1151123047, -0.1193847656, 0.0639648438, 0.0214843750, 0.0323486328, 0.0390625000, 0.0136718750, -0.1010742188, -0.0187988281, 0.0041503906, 0.0908203125, -0.0383110046, 0.0869140625, -0.0237655640, 0.0424804688, 0.0751953125, 0.0050659180, -0.0556640625, 0.0085449219, 0.1710205078, -0.0273437500, -0.0655212402, -0.1506347656, -0.0499877930, -0.0077209473, 0.0527343750, 0.0515136719, -0.0026855469, -0.1264648438, -0.1088867188, 0.0113525391, -0.1210937500, 0.0222167969, 0.0589599609, -0.0417480469, -0.0429077148, 0.0864257812, 0.0220642090, 0.0119628906, 0.0673828125, -0.1054687500, -0.0622406006, -0.0933837891, 0.1306152344, -0.0917968750, -0.0544433594, -0.0073242188, 0.0018310547, -0.0128936768, 0.0238037109, 0.0603027344, -0.0527343750, -0.0511474609, -0.0421142578, -0.0420837402, -0.0341796875, -0.0209960938, -0.0255126953, -0.0080566406, -0.1137695312, -0.0837402344, -0.0952148438, 0.0751953125, 0.0451660156, -0.0458984375, -0.1103515625, -0.0938720703, -0.0969238281, 0.1086425781, 0.0143432617, 0.0916748047, -0.1166992188, 0.0974121094, -0.0109863281, -0.0336303711, 0.0106201172, 0.0003662109, -0.0716552734, -0.0046386719, 0.0541992188, -0.0059814453, -0.0565185547, 0.0063476562, -0.0229492188, -0.0418090820, -0.0915527344, -0.0440673828, -0.0031738281, 0.0417480469, 0.0664062500, 0.1342773438, 0.0223999023, -0.1047363281, -0.0111083984, 0.0554199219, -0.0556640625, 0.0478515625, 0.0087280273, 0.0427246094, 0.0468750000, 0.0116577148, -0.0820312500, -0.0119018555, 0.0502929688, -0.0272216797, 0.0092468262, -0.0198364258, 0.0119628906, -0.0146484375, 0.0493164062, 0.0413818359, 0.0071105957, 0.0539550781, -0.0247802734, 0.0737304688, 0.0349121094, 0.0044708252, -0.0303955078, 0.0251464844, -0.0715332031, -0.0207519531, 0.0766601562, -0.0048370361, -0.0046997070, -0.0532226562, -0.0055541992, -0.0822753906, -0.0048675537, 0.0791015625, -0.0444335938, 0.0490722656, 0.0238037109, -0.0585937500, -0.0834960938, -0.0661621094, 0.0251464844, 0.0189208984, -0.0476074219, -0.0113525391, 0.0507812500, -0.0615234375, -0.0544433594, 0.0356445312, 0.0727539062, -0.0065917969, 0.0389404297, -0.0083618164, -0.0257568359, 0.0161132812, 0.0335693359, -0.0541992188, -0.0030364990, 0.0646972656, 0.0079040527, -0.0805664062, 0.0313720703, -0.0678710938, 0.0827636719, -0.0065917969, -0.0595703125, 0.0411376953, 0.0830078125, 0.0585937500, 0.0301513672, -0.0515136719, 0.0046997070, 0.0186157227, 0.0019073486, -0.0374755859, -0.0335693359, -0.0324707031, 0.0372314453, 0.0717773438, 0.0410156250, -0.0563964844, -0.0088806152, 0.0625000000, 0.0275878906, -0.0546875000, 0.0456542969, -0.0739746094, 0.0593261719, 0.0384521484, -0.0422363281, -0.0559082031, 0.0546875000, -0.0394287109, 0.0255126953, 0.0747070312, -0.0137329102, 0.0463867188, 0.0323486328, 0.0066223145, -0.0544433594, -0.0756835938, 0.0366210938, -0.0751953125, 0.0009346008, 0.0252685547, -0.0041351318, -0.0454101562, -0.0128784180, -0.0119018555, 0.0211181641, -0.0842285156, -0.0483398438, -0.0238037109, -0.0441894531, 0.0050506592, -0.0062866211, 0.0476074219, -0.0300292969, 0.0407714844, 0.0537109375, -0.0527343750, -0.0722656250, -0.0673828125, -0.0177001953, 0.0664062500, 0.0086364746, 0.0399169922, 0.0205078125, 0.0834960938, -0.0360107422, 0.0217285156, 0.0581054688, -0.0510253906, -0.0485839844, -0.0571289062, 0.0622558594, 0.0810546875, 0.0178222656, -0.0590820312, 0.0183105469, -0.0671386719, 0.0264892578, -0.0727539062, -0.0622558594, -0.0281982422, 0.0749511719, 0.0769042969, 0.0361328125, -0.0209350586, 0.0839843750, -0.0759277344, 0.0766601562, 0.0737304688, -0.0632324219, 0.0312500000, 0.0451660156, -0.0649414062, 0.0125122070, 0.0069274902, -0.0654296875, 0.0603027344, 0.0130615234, -0.0338134766, 0.0732421875, -0.0437011719, -0.0274658203, -0.0637207031, 0.0405273438, -0.0297851562, -0.0451660156, -0.0612792969, -0.0488281250, -0.0466308594, -0.0705566406, 0.0612792969, -0.0146484375, -0.0495605469, 0.0830078125, 0.0050506592, -0.0605468750, -0.0102539062, 0.0051269531, 0.0771484375, 0.0603027344, -0.0498046875, -0.0783691406, -0.0559082031, 0.0551757812, 0.0244140625, -0.0343017578, -0.0788574219, -0.0203857422, 0.0473632812, -0.0708007812, -0.0661621094, -0.0334472656, -0.0158691406, -0.0437011719, 0.0235595703, -0.0634765625, -0.0515136719, -0.0417480469, -0.0071105957, 0.0559082031, 0.0700683594, 0.0399169922, 0.0810546875, 0.0114135742, 0.0620117188, 0.0269775391, -0.0069885254, 0.0323486328, -0.0383300781, -0.0299072266, 0.0406494141, 0.0527343750, -0.0346679688, 0.0541992188, -0.0585937500, 0.0605468750, -0.0274658203, -0.0578613281, -0.0600585938, 0.0466308594, 0.0428466797, -0.0025939941, 0.0307617188, 0.0512695312, 0.0162963867, 0.0712890625, -0.0578613281, -0.0151367188, 0.0225830078, -0.0230712891, 0.0673828125, 0.0805664062, -0.0581054688, -0.0411376953, -0.0620117188, 0.0310058594, -0.0350341797, 0.0233154297, 0.0142211914, -0.0588378906, -0.0632324219, 0.0551757812, 0.0717773438, 0.0468750000, 0.0162963867, 0.0426025391, 0.0043945312, -0.0421142578, 0.0114135742, 0.0532226562, 0.0693359375, -0.0284423828, -0.0727539062, 0.0019531250, 0.1303710938, -0.0761718750, -0.0268554688, -0.0786132812, 0.0166015625, 0.1015625000, 0.0678710938, 0.0673828125, 0.0019531250, -0.0659179688, -0.0241699219, 0.0131835938, 0.0236816406, -0.0870361328, 0.0928955078, 0.0722656250, 0.0360107422, -0.0200805664, 0.1518554688, 0.0070800781, 0.0056152344, -0.0756835938, 0.0316162109, -0.0639648438, -0.0278320312, 0.0527343750, -0.0224609375, 0.0854492188, -0.0765380859, -0.0801391602, -0.0155105591, 0.1494140625, -0.0493164062, -0.1582031250, -0.1293945312, -0.0383300781, 0.0234375000, 0.0333862305, 0.0043945312, -0.0396118164, 0.0885620117, 0.0122070312, -0.1484375000, -0.0122070312, 0.0722656250, -0.0505371094, -0.0880126953, 0.0094604492, 0.0170898438, -0.0844726562, -0.1347656250, -0.0664062500, -0.1391601562, 0.1303710938, 0.1057128906, 0.0180664062, -0.0172729492, 0.0236816406, 0.1054687500, 0.0761718750, -0.0031738281, 0.0655517578, -0.0480957031, 0.0120849609, -0.0781250000, -0.0744323730, 0.0347290039, -0.0624084473, 0.0760498047, 0.0640869141, -0.0268554688, -0.0274658203, -0.0013427734, -0.0544433594, -0.0440673828, -0.0148925781, 0.0530548096, -0.0517578125, 0.0651855469, 0.0312500000, -0.1320800781, -0.0047607422, -0.0703125000, -0.0325927734, 0.0246582031, -0.0987548828, 0.0266723633, 0.1330566406, 0.0618896484, 0.0039062500, 0.1342773438, 0.0505371094, 0.1157226562, 0.0256347656, -0.0209960938, 0.1053466797, -0.0244140625, 0.1296386719, -0.0554199219, 0.0576171875, 0.0297851562, -0.0450439453, -0.0587158203, 0.0622558594, -0.0612792969, -0.0039062500, -0.0861816406, 0.0749511719, 0.0299072266, 0.1359863281, -0.1220703125, 0.0103759766, -0.0505371094, -0.0689086914, -0.1093750000, 0.0516967773, 0.0004882812, -0.1396484375, -0.0154113770, -0.0184936523, 0.0310058594, -0.0065917969, 0.0031738281, -0.0318603516, 0.0568847656, 0.0595703125, -0.0869140625, 0.0019531250, -0.1003417969, 0.0630493164, 0.0915107727, -0.0559082031, -0.0300292969, -0.0154418945, -0.0151367188, -0.0532226562, -0.1250000000, 0.0330810547, 0.0045166016, -0.0073852539, -0.0040283203, 0.1267089844, -0.0592966080, 0.1633300781, -0.1661376953, -0.0245971680, 0.0388183594, 0.0639648438, -0.0052490234, -0.1030273438, -0.0354003906, 0.0732421875, 0.1063842773, -0.0964355469, 0.1525459290, -0.0456542969, 0.0086669922, 0.0500488281, 0.0461425781, 0.0083007812, -0.0852050781, 0.0465087891, 0.0495605469, 0.0182838440, -0.0449218750, -0.0266113281, 0.0141601562, -0.0351562500, -0.0246582031, 0.0106811523, 0.0251464844, 0.1203613281, 0.0590820312, 0.0868644714, -0.0573730469, 0.0173339844, 0.0612792969, -0.1301879883, -0.0436401367, -0.0936279297, 0.1838378906, 0.0002441406, -0.0852050781, 0.0822753906, -0.0036010742, -0.0859375000, -0.0404052734, 0.0068359375, -0.0532226562, 0.0153808594, -0.0117187500, 0.1750488281, -0.0704803467, -0.1362304688, -0.0716247559, -0.0881347656, 0.0383300781, -0.1271972656, -0.0514526367, -0.0377464294, 0.0198135376, -0.0012817383, -0.1064453125, -0.0283203125, -0.0327148438, 0.0493164062, 0.0229492188, -0.0563964844, -0.0397949219, 0.1267089844, -0.0029296875, 0.0043334961, -0.0068969727, -0.0874023438, -0.0173339844, -0.0681152344, 0.0412597656, 0.0900878906, 0.1875000000, 0.0624694824, 0.0407714844, 0.0881347656, -0.0096435547, -0.0778808594, 0.0860290527, 0.1052856445, -0.0654296875, -0.1303710938, 0.1079101562, -0.0122070312, -0.0804443359, -0.0112915039, 0.1201171875, 0.0215454102, 0.1425781250, 0.1188964844, -0.0473632812, 0.1015625000, 0.0986328125, -0.0422363281, 0.1093750000, 0.0080566406, 0.0132446289, -0.0495300293, 0.0292663574, 0.1064453125, 0.0827636719, 0.0705108643, -0.0074462891, -0.0256652832, 0.0090332031, -0.1777343750, -0.0588378906, 0.0146484375, -0.0161132812, 0.1726074219, -0.0893554688, -0.1093750000, -0.0336914062, -0.0888671875, -0.0566406250, -0.1212158203, -0.0502929688, -0.0028381348, 0.1166992188, 0.0500488281, -0.1130981445, -0.0740966797, 0.0593261719, -0.0065917969, 0.0479125977, -0.1024780273, -0.0849609375, 0.0048828125, 0.0150032043, -0.0498046875, -0.0490722656, -0.0830078125, 0.0900878906, -0.0666503906, -0.0258789062, 0.1120605469, 0.1535644531, 0.0928955078, 0.1838378906, 0.2062377930, 0.0156250000, -0.0670166016, 0.0976562500, 0.0845947266, 0.0395507812, -0.0161132812, 0.1008300781, 0.0082397461, -0.0312500000, -0.0136718750, 0.0538482666, 0.2070312500, 0.1108398438, 0.1982421875, 0.0266113281, 0.0017089844, 0.0356445312, 0.1044921875, 0.0961914062, -0.1879882812, 0.0742187500, -0.1545410156, 0.1237792969, -0.0187988281, -0.0329589844, 0.0524902344, -0.0683593750, -0.0754394531, 0.0539550781, -0.2008056641, 0.0812988281, -0.0684814453, -0.1281738281, 0.2150878906, -0.1000976562, -0.0585937500, -0.1645507812, -0.1855468750, -0.0231933594, -0.1301269531, -0.0053100586, 0.0526390076, -0.0063476562, 0.0000000000, -0.1173400879, -0.0930786133, 0.0491943359, -0.0108642578, 0.1740112305, -0.0834960938, -0.2122802734, 0.0845336914, 0.0908203125, 0.1083984375, -0.0251464844, -0.2365722656, 0.1372070312, -0.0131835938, 0.0012207031, -0.0297851562, 0.1400146484, 0.0076904297, 0.1245117188, 0.1811523438, -0.0480957031, -0.0466308594, 0.1313476562, 0.1420898438, -0.0070800781, -0.0900878906, 0.0034179688, 0.0187988281, 0.0231933594, 0.0522460938, 0.0847778320, 0.0173339844, 0.0056152344, 0.0334472656, 0.0195312500, -0.0178833008, 0.0451660156, 0.0388183594, 0.0012207031, -0.0717773438, -0.0910644531, -0.0700683594, 0.0448608398, 0.0434570312, -0.1213378906, -0.0151367188, 0.0324707031, -0.1706542969, -0.0158081055, 0.1235351562, 0.0109863281, -0.0771484375, -0.0612792969, 0.1492919922, 0.0249633789, -0.1723632812, -0.0527343750, -0.2756347656, 0.0831298828, -0.2131347656, 0.0385742188, -0.0095977783, 0.0937500000, -0.0549316406, -0.2524414062, -0.0131835938, -0.0509033203, 0.0014648438, 0.0764160156, 0.0595703125, -0.1542968750, 0.1352539062, -0.0446777344, 0.0580444336, -0.1004028320, -0.1719970703, 0.0861816406, -0.0391845703, 0.1051025391, -0.0617675781, 0.2695312500, -0.1171875000, 0.1339111328, 0.2019042969, -0.0434570312, 0.1049804688, 0.1146545410, 0.0514526367, 0.0104980469, -0.0847778320, 0.1274414062, 0.2641601562, -0.0625000000, -0.1237792969, 0.1676330566, -0.0603027344, 0.0957031250, 0.1462402344, 0.1665039062, 0.1375122070, 0.0290527344, 0.1452636719, 0.0916748047, -0.0711669922, -0.1126708984, -0.1186523438, 0.0103759766, 0.0432128906, -0.1006164551, -0.1066894531, -0.0743408203, -0.1794433594, 0.0422363281, 0.2419433594, 0.0151367188, 0.0084228516, -0.1682128906, 0.1433105469, 0.0819091797, -0.1494140625, 0.1091308594, -0.2717285156, 0.1340332031, -0.1381835938, 0.1251220703, 0.0507812500, -0.0139160156, 0.0334472656, -0.2597656250, -0.0123291016, -0.1303710938, -0.0407714844, 0.0682983398, 0.0199203491, -0.2145576477, 0.1157226562, -0.0148925781, -0.0346679688, -0.2268066406, -0.1274471283, -0.0146484375, -0.1010742188, 0.2529296875, -0.0737304688, 0.1798095703, -0.0374755859, 0.1029052734, 0.1342773438, -0.1838378906, 0.0640869141, 0.0878906250, 0.0422363281, 0.1319580078, -0.0587158203, 0.2016601562, 0.2731933594, -0.0500488281, -0.0493164062, 0.2067871094, 0.0175781250, 0.1879882812, 0.0197753906, 0.1247558594, 0.1716308594, 0.1377716064, 0.2001953125, 0.1217041016, -0.1066284180, -0.0102539062, 0.0922851562, 0.0137786865, 0.0249023438, -0.1293029785, -0.0288085938, -0.1083984375, -0.1315917969, 0.1351318359, 0.1914062500, -0.0170898438, 0.0099334717, -0.2404174805, 0.1813964844, 0.0762329102, -0.2241210938, -0.0275878906, -0.1680908203, 0.0998535156, -0.2685546875, 0.0991516113, -0.0446166992, 0.0744628906, 0.0415039062, -0.1347656250, -0.1218261719, -0.1641845703, 0.0319824219, 0.1330566406, -0.0522460938, -0.1776123047, 0.0498046875, -0.0651397705, 0.0249023438, -0.2255859375, -0.1348114014, 0.0311279297, -0.0541992188, 0.0988769531, -0.1517333984, 0.2619628906, -0.1152343750, 0.0859985352, 0.1176147461, -0.1002197266, -0.0065917969, 0.0793457031, -0.0402832031, 0.0610351562, 0.0219726562, 0.0580291748, 0.2175292969, 0.0285644531, -0.0927734375, 0.1440429688, -0.0041503906, 0.0566406250, 0.0822753906, 0.0510253906, 0.1491699219, 0.0563964844, 0.1889648438, 0.1304321289, -0.1196289062, -0.0592803955, 0.0052490234, -0.0161132812, -0.0179443359, -0.1672363281, -0.1098632812, 0.0068359375, -0.1328125000, 0.1201171875, 0.0664062500, 0.1206054688, -0.0766601562, -0.2812500000, 0.1113281250, 0.1694335938, -0.2009277344, -0.0891113281, -0.0653076172, 0.0690917969, -0.2297363281, 0.1818847656, -0.0279541016, 0.1313476562, 0.1801757812, -0.2812500000, -0.0361938477, -0.2819824219, -0.0352172852, 0.0363769531, -0.1318359375, -0.2578125000, 0.0173339844, -0.0588378906, -0.1242675781, -0.1476440430, -0.0911865234, 0.0839843750, -0.0922851562, 0.0910644531, -0.0480957031, 0.1936035156, -0.0305786133, 0.1990966797, 0.2602539062, -0.0530395508, 0.0463790894, 0.1474609375, -0.0378417969, 0.1965332031, -0.0471191406, 0.0432128906, 0.1630859375, -0.1215820312, -0.1159667969, 0.1386718750, -0.0642089844, 0.1251220703, 0.1171264648, 0.1550292969, 0.0698852539, 0.0383300781, 0.2224121094, 0.0592041016, -0.0114746094, -0.0294799805, 0.0165405273, 0.0642700195, -0.0969238281, -0.1713867188, 0.0766601562, -0.1210937500, -0.1478271484, 0.0569458008, 0.0949707031, -0.0883789062, -0.1267089844, -0.0612792969, 0.1420898438, 0.1815185547, -0.1384277344, -0.0341796875, -0.1243286133, -0.0341796875, -0.2604980469, 0.1464538574, 0.0771636963, -0.1098632812, -0.0177001953, -0.1770019531, -0.0446472168, -0.3063964844, -0.1145019531, 0.1408691406, -0.1086425781, -0.3164062500, 0.0121765137, -0.0085449219, -0.0091552734, -0.1518554688, -0.0848388672, 0.0144042969, -0.0375366211, 0.1765136719, 0.0621337891, 0.2116699219, -0.0783691406, 0.1962890625, 0.0767822266, -0.1103515625, 0.0671386719, 0.1289062500, 0.0805664062, 0.1208496094, -0.0056152344, 0.1110839844, 0.1121826172, 0.0019531250, -0.1142578125, 0.1738281250, 0.0311279297, 0.1040039062, 0.2097167969, 0.1032714844, 0.0319824219, 0.0141601562, 0.2419433594, 0.1994628906, -0.1015014648, -0.0662841797, -0.0108032227, 0.0997314453, 0.0480957031, -0.1228027344, 0.0753784180, -0.1264648438, -0.2451171875, -0.0190429688, 0.0092773438, 0.0076293945, -0.0310058594, -0.1104125977, 0.1184082031, 0.1855468750, -0.2583007812, -0.0668640137, -0.2871093750, -0.1228027344, -0.1517944336, 0.2534179688, 0.1031494141, 0.0218505859, -0.0576171875, -0.2828979492, 0.0208740234, -0.2246093750, 0.0452575684, 0.1203613281, -0.0504150391, -0.2470703125, 0.0209960938, -0.0600585938, 0.0093994141, -0.2060546875, -0.2910156250, -0.0710449219, 0.0672378540, 0.1445312500, 0.0598144531, 0.0895996094, -0.1533203125, 0.1122407913, 0.1098632812, -0.0781250000, 0.1018066406, 0.1279296875, 0.0297851562, 0.1586914062, -0.0771484375, 0.0649414062, 0.0869140625, -0.0476074219, 0.0405273438, 0.2885742188, 0.0799560547, 0.0493164062, 0.2797851562, 0.0270996094, 0.0061035156, 0.0293579102, 0.1998939514, 0.1762695312, -0.0733184814, -0.0934753418, 0.2087402344, 0.0189208984, 0.0002441406, -0.1167144775, -0.0120849609, 0.0366210938, -0.1550292969, 0.1101074219, 0.1613769531, -0.0949707031, 0.0515136719, -0.1700439453, 0.0100097656, 0.1599121094, -0.2114257812, -0.0703125000, -0.2629394531, -0.2164001465, -0.2792968750, 0.0673828125, 0.0107421875, 0.0678710938, -0.0305175781, -0.2323913574, -0.0600585938, -0.2653808594, -0.0090332031, 0.0722656250, 0.0251464844, -0.1804199219, -0.0079040527, -0.2207031250, 0.0097656250, -0.0378417969, -0.2438964844, -0.0449104309, -0.0197753906, 0.0634765625, 0.0894775391, 0.0603027344, -0.0715332031, 0.0512695312, 0.1176452637, -0.1899414062, 0.0539550781, 0.0944824219, 0.0462036133, 0.1127929688, -0.0403442383, 0.0098876953, 0.0009765625, -0.1281738281, -0.0493164062, 0.3068847656, 0.0507812500, 0.0762939453, 0.2810058594, 0.1324462891, -0.0476074219, 0.1484375000, 0.1169433594, 0.0957031250, -0.0522460938, -0.0208740234, 0.0939941406, 0.1416015625, -0.0095214844, -0.1552734375, 0.0629882812, 0.0588378906, -0.1298828125, 0.0368652344, -0.0037689209, 0.0375976562, 0.0480957031, -0.1574707031, 0.1359863281, 0.0820312500, -0.1628417969, -0.0198974609, -0.1992187500, -0.2968750000, -0.1467285156, 0.1391601562, -0.0505371094, -0.0307617188, -0.0219726562, -0.2163391113, -0.0343627930, -0.2795410156, 0.0613403320, 0.0409545898, -0.0664062500, -0.2170410156, -0.0820312500, -0.1804199219, -0.0488281250, -0.0128173828, -0.2252197266, -0.1098632812, -0.0357666016, 0.0129394531, 0.0881347656, 0.1091308594, 0.0322265625, 0.0359497070, -0.0068359375, -0.2036132812, 0.1618652344, -0.0364990234, -0.0625000000, 0.1201171875, -0.0509033203, 0.1137695312, -0.0283203125, -0.0009765625, 0.0388183594, 0.1420898438, 0.0949707031, 0.1196289062, 0.1850585938, -0.0080566406, 0.0400390625, 0.0332946777, 0.2023925781, -0.0242919922, -0.0009765625, -0.0735778809, 0.2186279297, 0.1679687500, 0.0314941406, 0.0786132812, -0.0548095703, -0.1088867188, -0.2285156250, 0.0063476562, -0.0844726562, -0.0125732422, -0.0067138672, -0.1145019531, 0.0275878906, 0.1204223633, -0.1701660156, 0.0568847656, -0.1982421875, -0.2661132812, -0.1371116638, -0.0454101562, -0.0473632812, -0.0493164062, -0.0048217773, -0.2702636719, 0.0942382812, -0.2580566406, -0.0437011719, 0.0146484375, -0.0545654297, -0.1721191406, -0.0302734375, -0.1750488281, -0.0219726562, -0.0039062500, -0.2902832031, 0.0249023438, -0.0979003906, 0.0265502930, 0.1439208984, -0.0458984375, -0.1169433594, 0.0648193359, -0.0023193359, -0.0808105469, 0.1491699219, -0.0888671875, 0.0576171875, 0.0717163086, 0.0268554688, 0.0543823242, -0.1887207031, -0.0734863281, -0.1176757812, 0.1640014648, 0.1343994141, 0.1411132812, 0.1132812500, -0.0646972656, 0.1958007812, -0.0322265625, 0.1418457031, 0.0815429688, 0.0639648438, -0.0763549805, 0.1882934570, 0.0305175781, -0.0554199219, 0.0070800781, -0.0417480469, -0.0476074219, -0.2551269531, 0.1079101562, -0.0395507812, 0.0214843750, 0.0817871094, -0.1156921387, 0.0475463867, 0.0029296875, -0.1059570312, -0.0312500000, -0.1071777344, -0.1302490234, -0.0366210938, -0.0537109375, 0.0133972168, 0.0270996094, -0.0620117188, -0.2053222656, 0.0607910156, -0.0871582031, 0.0747070312, 0.0375976562, -0.0883789062, 0.0236816406, -0.0411376953, -0.0517578125, -0.0520019531, 0.0517578125, -0.1294250488, -0.0803222656, -0.1149902344, -0.0354003906, 0.1936035156, 0.0891113281, -0.0468750000, -0.0019531250, -0.0632324219, 0.0246582031, 0.0213623047, -0.0209960938, 0.0234375000, 0.0113525391, 0.0141601562, -0.0279541016, -0.0920410156, 0.0077514648, 0.0350341797, 0.1789550781, 0.1289062500, -0.0268554688, 0.0854492188, 0.0476074219, 0.2017517090, 0.0742187500, 0.1240234375, -0.0671386719, 0.0295410156, -0.0031738281, 0.1430664062, 0.1748046875, 0.1047363281, 0.0750122070, 0.0761718750, -0.0092773438, -0.1608886719, -0.0986328125, -0.0527343750, -0.0390625000, 0.1577148438, -0.0362548828, 0.1296386719, -0.1345329285, -0.1408691406, 0.0921630859, -0.1130371094, 0.0104980469, 0.0129394531, -0.0168457031, -0.0988769531, -0.0415649414, 0.0080261230, -0.1569824219, 0.0268554688, -0.1206054688, 0.0934143066, 0.0078125000, -0.0979003906, -0.1047363281, -0.0944824219, -0.1499023438, -0.0086669922, 0.0098876953, -0.1467285156, 0.0568847656, -0.1506347656, -0.0810546875, 0.1121826172, 0.0419921875, 0.0626831055, 0.0407409668, 0.0200195312, -0.0476074219, -0.0898437500, -0.0736389160, 0.0385742188, -0.0102539062, 0.0678710938, -0.0467529297, -0.2365722656, -0.0361328125, 0.0204467773, 0.1601562500, 0.1743164062, 0.0587463379, 0.1345214844, -0.0522460938, 0.1323242188, -0.0064697266, -0.0021972656, 0.0506591797, 0.0332031250, -0.0669403076, 0.0744628906, 0.1118164062, 0.1577148438, 0.0969238281, 0.2189941406, 0.0259399414, -0.2646484375, -0.1494140625, -0.0986328125, 0.0039062500, 0.0887451172, -0.0515136719, 0.0778808594, -0.1071777344, -0.1184082031, -0.0219726562, -0.0964355469, 0.1787109375, -0.0576171875, -0.0073242188, 0.1049804688, -0.0968017578, -0.0305175781, -0.2333984375, -0.0625000000, -0.1483917236, 0.0803222656, -0.0952148438, 0.0356445312, -0.0790405273, 0.0275878906, -0.0339355469, -0.0283203125, -0.0935058594, -0.1442413330, 0.0354003906, -0.0705566406, 0.0333251953, 0.0107421875, 0.0527343750, -0.0954589844, -0.0625000000, 0.0283203125, 0.0368652344, -0.0495605469, -0.1284179688, -0.0403161049, 0.0104980469, -0.0213623047, 0.0361328125, -0.2282714844, -0.0098876953, 0.0007324219, 0.0808105469, 0.1057128906, 0.0932922363, 0.0605468750, -0.0529785156, 0.0805664062, 0.0952148438, 0.0263671875, -0.0341186523, -0.0974121094, 0.0095214844, -0.0660400391, 0.1955566406, 0.1080322266, 0.0988769531, 0.2429199219, 0.0996093750, -0.2810058594, -0.0723876953, -0.0694427490, 0.0246582031, 0.0434570312, 0.0246582031, 0.0452880859, -0.1560058594, 0.0458984375, -0.0085449219, -0.1101074219, 0.1274414062, -0.0742187500, -0.1501464844, -0.0024414062, -0.0855102539, 0.0659179688, -0.1997070312, -0.1726074219, -0.0971679688, 0.0512695312, -0.0783691406, -0.0739746094, -0.0927734375, -0.0067138672, -0.1306152344, 0.1057128906, 0.0708007812, -0.0292968750, -0.0524902344, -0.0358886719, -0.0122070312, 0.0223388672, -0.0070800781, 0.0551757812, -0.0268554688, -0.0546875000, 0.0682373047, -0.1479492188, 0.0139160156, 0.0671386719, -0.0878906250, -0.0148925781, -0.0324707031, -0.1945800781, -0.0178222656, 0.0267639160, 0.0620727539, 0.0576171875, 0.1132812500, 0.0022583008, -0.0383300781, 0.1021728516, 0.1085205078, 0.0642089844, 0.0673828125, -0.0058593750, -0.0540161133, -0.0117187500, 0.1364746094, 0.1345214844, 0.0209960938, 0.1101074219, 0.0727539062, -0.2062072754, -0.1390380859, 0.0134277344, 0.1350097656, 0.0997314453, 0.0157470703, -0.0129394531, -0.2729492188, -0.0444335938, 0.2072753906, 0.0122070312, 0.1440429688, 0.0839843750, -0.0284423828, 0.1069335938, 0.0312500000, 0.1440429688, -0.0730285645, -0.0926513672, -0.1503906250, 0.1596069336, -0.0034179688, -0.0251464844, 0.0175781250, 0.0270996094, -0.0517578125, 0.0125122070, 0.0068359375, -0.0830078125, 0.0852050781, 0.0010375977, 0.0563964844, -0.1904296875, -0.0061035156, -0.0700683594, -0.0621185303, 0.0202636719, 0.1003417969, -0.1730957031, -0.0517578125, 0.0312500000, 0.0561904907, -0.0166015625, 0.0192565918, -0.0888671875, 0.0136718750, 0.0959472656, -0.0048828125, -0.0649414062, 0.1396522522, -0.1062011719, 0.0140380859, 0.0755615234, 0.1333007812, -0.0312500000, -0.0249023438, -0.0803222656, -0.0698242188, -0.0009765625, 0.1599121094, -0.0156250000, -0.0208740234, 0.0327148438, 0.1275634766, -0.1262855530, -0.1019134521, -0.1196289062, 0.1406250000, 0.1168975830, 0.0632629395, -0.0424804688, -0.2080078125, -0.0473632812, 0.0649414062, -0.1040039062, 0.0795898438, -0.0556640625, -0.0104980469, 0.0716552734, -0.0422363281, 0.0422363281, 0.0083007812, -0.0837402344, -0.0808105469, 0.1790771484, -0.0665893555, 0.0605468750, -0.1416015625, -0.0986328125, -0.0366210938, -0.0010986328, -0.1137695312, -0.0964355469, 0.0742187500, 0.0593261719, 0.0815429688, -0.0336914062, 0.0610351562, -0.0068359375, -0.1230468750, -0.0220947266, 0.0585327148, -0.0900878906, 0.0163574219, -0.0817871094, 0.1450195312, 0.0799560547, -0.0426025391, -0.1370849609, 0.1062011719, -0.0441894531, -0.0085449219, -0.0761718750, 0.0568847656, -0.0625000000, 0.0966796875, -0.0283203125, 0.0575675964, -0.1333007812, 0.0053710938, -0.1237792969, 0.0068359375, -0.0754394531, 0.1796875000, 0.0528564453, -0.0867309570, 0.0318603516, 0.0595703125, 0.0292968750, -0.1333007812, 0.0151367188, 0.0148925781, 0.1364746094, -0.0173339844, 0.1196289062, -0.0874023438, -0.0206451416, 0.0363769531, -0.1274414062, 0.0467529297, 0.0579376221, -0.0637207031, 0.2294921875, 0.1386718750, 0.0410156250, -0.0469207764, -0.1130981445, -0.0927734375, 0.1242065430, 0.0336914062, -0.0601806641, -0.0546875000, -0.0520019531, -0.0368652344, -0.0942382812, -0.0095214844, -0.1154785156, 0.1066894531, 0.0133056641, -0.0664062500, -0.0253601074, 0.0550537109, 0.0809631348, -0.0248718262, 0.0874023438, 0.0118408203, -0.1873779297, 0.0391120911, 0.0747070312, 0.0644531250, 0.1752929688, -0.0253906250, -0.1156005859, -0.0056762695, 0.0035400391, 