//Numpy array shape [64, 10]
//Min -0.902343750000
//Max 0.556640625000
//Number of zeros 1

#ifndef W8_H_
#define W8_H_

#ifndef __SYNTHESIS__
h_dense_1_weight_t w8[640];
#else
h_dense_1_weight_t w8[640] = {0.5078125000, -0.5390625000, 0.2617187500, 0.1972656250, -0.4853515625, -0.3867187500, -0.2734375000, 0.2109375000, 0.0839843750, 0.3203125000, -0.0146484375, 0.2890625000, 0.4414062500, -0.0996093750, -0.4843750000, -0.4882812500, -0.5273437500, 0.0458984375, -0.1933593750, -0.0146484375, 0.0380859375, -0.2812500000, 0.1484375000, -0.2734375000, 0.0377807617, 0.2558593750, -0.1406250000, 0.1679687500, 0.0800781250, -0.3808593750, -0.1953125000, 0.0527343750, -0.1074218750, -0.0839843750, 0.3046875000, -0.3632812500, -0.0498046875, -0.0898437500, -0.8164062500, 0.2382812500, 0.1875000000, -0.1752929688, -0.3046875000, 0.2148437500, 0.3398437500, -0.2148437500, -0.2363281250, -0.0214843750, -0.8320312500, 0.4121093750, 0.3437500000, -0.1093750000, -0.5234375000, -0.6250000000, 0.2988281250, 0.5000000000, 0.1513671875, 0.1875000000, -0.1943359375, 0.3828125000, 0.0683593750, -0.0390625000, -0.3046875000, -0.1308593750, 0.1289062500, 0.1083984375, 0.1679687500, -0.0961914062, 0.2421875000, -0.0511169434, 0.3105468750, 0.0234375000, 0.2207031250, -0.2851562500, 0.3222656250, -0.3203125000, -0.3164062500, 0.2968750000, -0.1621093750, 0.2363281250, -0.1464843750, 0.1220703125, 0.1494140625, 0.0908203125, -0.7031250000, 0.3828125000, -0.0053710938, -0.0166015625, -0.1191406250, -0.5000000000, -0.0166015625, 0.0351562500, -0.1367187500, -0.5488281250, 0.4062500000, 0.0605468750, 0.0771484375, 0.1718750000, -0.0009765625, -0.1123046875, -0.1367187500, 0.2851562500, 0.0952148438, -0.0175781250, 0.0585937500, -0.2441406250, 0.1455078125, 0.3515625000, 0.1718750000, -0.6328125000, 0.1503906250, -0.3554687500, -0.1562500000, -0.0283203125, 0.1699218750, 0.1796875000, -0.5664062500, 0.1767578125, 0.2519531250, 0.1210937500, -0.1679687500, 0.1054687500, -0.1699218750, 0.0698242188, -0.1953125000, -0.0087890625, -0.5781250000, 0.0458984375, -0.0283203125, 0.1484375000, -0.0522460938, -0.0478515625, 0.2812500000, 0.2636718750, 0.1015625000, -0.0996093750, 0.0597991943, -0.2753906250, -0.0937500000, -0.0371093750, -0.1250000000, -0.3515625000, -0.2128906250, -0.4394531250, -0.5585937500, 0.5468750000, -0.1445312500, -0.2084960938, 0.3828125000, 0.1796875000, 0.2089843750, -0.4570312500, 0.3613281250, -0.0498046875, 0.2187500000, -0.0996093750, 0.2519531250, -0.3984375000, -0.1318359375, 0.0791015625, 0.3281250000, -0.3027343750, -0.0351562500, -0.0664062500, -0.2324218750, -0.0156250000, -0.0175781250, -0.3007812500, 0.1679687500, -0.2343750000, 0.1406250000, 0.3222656250, 0.3417968750, -0.3730468750, 0.0429687500, 0.1015625000, 0.3710937500, -0.5664062500, -0.0527343750, 0.3437500000, -0.5625000000, 0.0625000000, -0.0310058594, 0.3945312500, 0.1562500000, -0.0976562500, -0.5742187500, -0.0800781250, -0.4179687500, 0.1972656250, -0.1523437500, -0.1464843750, -0.0400390625, 0.3046875000, -0.3144531250, -0.3437500000, 0.0449218750, 0.2226562500, 0.1816406250, -0.1640625000, -0.2460937500, 0.3242187500, 0.0371093750, 0.1259765625, 0.0234375000, -0.6699218750, -0.2753906250, 0.0825195312, -0.2773437500, -0.4902343750, 0.0292968750, -0.3603515625, 0.5273437500, -0.2851562500, -0.3867187500, -0.1289062500, -0.1660156250, -0.5117187500, 0.2968750000, 0.4101562500, -0.2734375000, 0.3945312500, 0.0625000000, -0.1953125000, -0.1835937500, 0.1582031250, -0.5937500000, 0.3710937500, -0.6132812500, -0.3378906250, -0.0869140625, -0.1259765625, 0.2441406250, -0.4062500000, 0.1328125000, -0.1953125000, 0.2929687500, -0.0214843750, -0.3789062500, -0.0029296875, -0.5546875000, 0.1289062500, -0.6875000000, 0.4550781250, 0.0546875000, 0.5566406250, 0.0000000000, -0.2160644531, -0.4785156250, 0.2714843750, 0.2226562500, -0.2949218750, -0.2265625000, 0.3281250000, 0.2714843750, 0.0820312500, -0.3339843750, -0.1679687500, -0.1132812500, -0.0185546875, 0.0224609375, 0.2773437500, -0.6523437500, 0.3320312500, -0.2456054688, 0.1630859375, 0.3261718750, -0.3515625000, 0.1250000000, -0.0791015625, 0.3339843750, 0.0175781250, -0.2753906250, -0.3144531250, 0.1108398438, -0.5000000000, 0.3105468750, 0.1025390625, 0.0126953125, 0.3105468750, 0.2480468750, -0.2519531250, 0.0703125000, 0.2656250000, -0.6718750000, 0.2421875000, -0.3125000000, -0.3554687500, -0.2480468750, 0.0117187500, -0.1074218750, 0.2304687500, 0.1699218750, 0.2691040039, 0.2646484375, -0.9023437500, -0.4023437500, 0.0068359375, 0.0781250000, 0.1582031250, -0.2382812500, 0.4062500000, 0.3925781250, -0.3515625000, 0.2343750000, 0.3085937500, 0.1035156250, 0.5351562500, -0.6191406250, -0.1933593750, -0.2392578125, 0.1796875000, 0.0439453125, 0.2812500000, -0.3574218750, 0.2480468750, -0.5097656250, 0.1835937500, 0.0195312500, -0.0458984375, -0.2272949219, 0.2714843750, 0.3593750000, 0.2578125000, -0.4960937500, 0.4042968750, -0.3398437500, 0.4199218750, -0.4804687500, -0.2929687500, 0.3691406250, -0.4414062500, 0.4042968750, -0.0203857422, -0.0283203125, 0.0957031250, 0.3085937500, -0.1508789062, -0.3300781250, -0.5058593750, 0.1835937500, 0.3046875000, 0.1933593750, 0.3378906250, -0.5664062500, 0.1650390625, -0.3300781250, 0.4453125000, -0.4218750000, -0.1059570312, -0.2753906250, 0.1777343750, -0.2343750000, -0.1367187500, 0.1093750000, -0.2392578125, 0.1621093750, 0.3691406250, -0.0812988281, 0.2617187500, -0.1875000000, 0.4218750000, 0.4296875000, -0.4472656250, 0.1523437500, -0.6562500000, -0.0468750000, 0.4765625000, -0.2871093750, -0.3691406250, -0.2988281250, -0.4296875000, 0.2460937500, 0.0283203125, 0.0097656250, -0.3984375000, 0.1748046875, 0.3144531250, 0.2011718750, 0.0307617188, 0.0546875000, -0.2695312500, 0.1762695312, -0.1679687500, -0.4121093750, 0.2470703125, -0.4140625000, 0.2158203125, -0.3417968750, 0.2255859375, -0.1425781250, 0.3164062500, -0.1484375000, -0.3261718750, -0.1308593750, 0.0019531250, 0.2890625000, 0.0947265625, 0.0603027344, -0.6992187500, -0.4023437500, 0.1269531250, 0.1152343750, 0.0625000000, 0.0180664062, -0.2363281250, 0.0869140625, -0.1474609375, 0.2480468750, 0.2246093750, 0.1718750000, -0.1494140625, -0.1953125000, 0.3085937500, 0.2285156250, 0.1269531250, 0.1386718750, 0.4111328125, -0.1494140625, -0.4667968750, 0.3007812500, 0.3183593750, -0.5859375000, 0.3007812500, -0.3037109375, 0.5312500000, -0.1640625000, -0.2695312500, -0.1796875000, -0.0068359375, -0.1855468750, -0.4355468750, -0.1503906250, -0.0380859375, -0.1074218750, 0.1416015625, 0.2343750000, 0.2910156250, 0.2968750000, -0.0986328125, -0.3574218750, -0.1718750000, -0.0722656250, 0.1816406250, 0.3789062500, 0.0869140625, 0.3652343750, -0.1767578125, -0.0253906250, -0.1020507812, -0.3828125000, 0.1289062500, -0.1777343750, 0.0234375000, 0.0117187500, -0.5078125000, -0.4882812500, -0.3867187500, 0.2275390625, 0.3593750000, 0.2402343750, -0.1367187500, 0.4550781250, -0.2402343750, -0.5859375000, 0.0493164062, -0.2753906250, 0.1308593750, -0.0195312500, 0.1640625000, 0.2519531250, 0.1738281250, 0.3203125000, 0.0312500000, 0.0937500000, -0.0034179688, -0.1171875000, -0.4687500000, 0.2792968750, -0.0058593750, 0.1152343750, 0.2734375000, -0.1914062500, 0.2617187500, -0.4960937500, -0.0439453125, 0.0237426758, -0.4609375000, -0.1005859375, 0.0634765625, -0.2597656250, 0.2734375000, -0.3359375000, -0.5683593750, 0.2832031250, -0.1210937500, -0.0458984375, -0.1152343750, 0.3886718750, 0.2402343750, -0.2011718750, 0.1640625000, 0.2792968750, 0.2578125000, 0.1796875000, 0.1367187500, -0.3027343750, -0.1718750000, 0.1420898438, -0.3886718750, -0.4492187500, -0.3320312500, -0.1464843750, 0.3300781250, -0.0937500000, 0.1455078125, -0.0869140625, -0.4023437500, 0.1054687500, 0.2167968750, -0.6152343750, -0.2070312500, -0.6328125000, -0.1425781250, 0.5000000000, 0.4863281250, -0.3964843750, -0.1875000000, -0.2402343750, 0.1162109375, 0.3437500000, -0.1191406250, -0.2773437500, -0.4648437500, 0.1855468750, -0.6484375000, -0.0039062500, 0.1269531250, -0.3789062500, 0.0654296875, 0.0605468750, 0.3320312500, 0.1923828125, -0.1582031250, -0.2343750000, -0.3144531250, 0.0087890625, 0.1914062500, 0.2792968750, -0.6796875000, -0.3027343750, 0.2363281250, -0.2148437500, -0.5273437500, 0.3691406250, 0.2890625000, -0.0380859375, 0.2558593750, 0.2187500000, -0.0849609375, -0.1933593750, -0.3378906250, -0.0546875000, -0.2832031250, 0.0642089844, 0.1953125000, 0.3515625000, -0.4882812500, 0.2050781250, -0.0520019531, 0.1914062500, -0.1855468750, -0.5117187500, 0.1093750000, -0.1250000000, -0.4531250000, -0.4453125000, 0.2509765625, 0.1289062500, 0.2011718750, 0.1894531250, -0.3554687500, -0.3300781250, 0.0566406250, -0.0029296875, 0.3242187500, -0.1884765625, 0.1357421875, 0.1513671875, 0.1455078125, -0.0745849609, -0.2578125000, 0.0864257812, -0.1191406250, -0.1992187500, -0.1289062500, -0.2304687500, -0.4433593750, 0.3183593750, 0.1210937500, 0.2226562500, -0.4023437500, 0.2851562500, 0.1220703125, -0.1416015625, 0.2792968750, 0.2949218750, 0.0195312500, -0.0898437500, -0.1953125000, 0.0727539062, -0.0625000000, -0.2519531250, -0.4804687500, 0.2031250000, 0.3652343750, 0.3183593750, -0.1699218750, -0.4296875000, -0.0205078125, -0.3125000000, 0.2929687500, -0.0937500000, -0.2070312500, -0.6289062500, 0.3300781250, 0.3417968750, 0.1914062500, 0.1191406250, 0.1171875000, 0.2226562500, 0.5136718750, -0.4453125000, -0.0156250000, -0.0869140625, -0.0483703613, 0.3183593750, 0.0253906250, -0.4052734375, 0.0742187500};

#endif

#endif
