//Numpy array shape [64, 10]
//Min -0.867187500000
//Max 0.687500000000
//Number of zeros 2

#ifndef W8_H_
#define W8_H_

#ifndef __SYNTHESIS__
h_dense_1_weight_t w8[640];
#else
h_dense_1_weight_t w8[640] = {0.0253906250, -0.1796875000, 0.0292968750, -0.3828125000, -0.0488281250, 0.2734375000, 0.0781250000, 0.1679687500, 0.0146484375, 0.1230468750, -0.6875000000, -0.2011718750, -0.4062500000, 0.5078125000, 0.1796875000, 0.3671875000, -0.5937500000, -0.3281250000, 0.1054687500, -0.1171875000, -0.2578125000, 0.1562500000, 0.0312500000, 0.2812500000, 0.0546875000, -0.0292968750, 0.2656250000, -0.3203125000, 0.1523437500, -0.3984375000, 0.2109375000, 0.3164062500, 0.3125000000, 0.0156250000, 0.0253906250, -0.2812500000, -0.4453125000, -0.3281250000, -0.6718750000, 0.2968750000, 0.1367187500, -0.1914062500, 0.2187500000, -0.2031250000, 0.2187500000, 0.2421875000, -0.4140625000, 0.2812500000, 0.1328125000, -0.0078125000, 0.0664062500, -0.4765625000, 0.0615234375, -0.2031250000, -0.0156250000, 0.2187500000, 0.0407714844, 0.1132812500, 0.1523437500, -0.2109375000, -0.3281250000, -0.2812500000, -0.0986328125, -0.3867187500, 0.3281250000, 0.5703125000, -0.2642822266, 0.1953125000, -0.2695312500, 0.0507812500, 0.1992187500, 0.3125000000, -0.6093750000, -0.2421875000, 0.0195312500, 0.0429687500, 0.1953125000, 0.1113281250, -0.5468750000, 0.2343750000, -0.1972656250, 0.1210937500, -0.0781250000, -0.3046875000, -0.3828125000, -0.2890625000, -0.3281250000, 0.1230468750, 0.1601562500, 0.0839843750, 0.3203125000, 0.1210937500, 0.3281250000, 0.1015625000, -0.3867187500, -0.0664062500, 0.0937500000, 0.2109375000, 0.2109375000, -0.1523437500, 0.2460937500, 0.1757812500, -0.5937500000, -0.3769531250, 0.4453125000, -0.0585937500, 0.1640625000, 0.6406250000, -0.2304687500, -0.3310546875, 0.2109375000, -0.0996093750, 0.0742187500, -0.0234375000, 0.1484375000, -0.3359375000, 0.2734375000, -0.0131835938, 0.2656250000, 0.2656250000, 0.2031250000, -0.2871093750, 0.1328125000, -0.0429687500, 0.3437500000, 0.2421875000, 0.2890625000, -0.4218750000, 0.1601562500, 0.1953125000, 0.1640625000, 0.2265625000, -0.1953125000, -0.2070312500, 0.2578125000, 0.0976562500, -0.0976562500, -0.3515625000, 0.2734375000, -0.2031250000, 0.2968750000, -0.3671875000, 0.6875000000, -0.0625000000, -0.5175781250, 0.4218750000, -0.2148437500, -0.0390625000, -0.1328125000, -0.1958007812, -0.2617187500, 0.4921875000, -0.3359375000, -0.7968750000, -0.0546875000, -0.1484375000, -0.3046875000, -0.0234375000, -0.1015625000, 0.1289062500, -0.3671875000, -0.1132812500, 0.0981445312, -0.2421875000, -0.5546875000, 0.3632812500, 0.3515625000, 0.2890625000, 0.0117187500, -0.4765625000, -0.0937500000, 0.4218750000, 0.3515625000, 0.3203125000, -0.1171875000, -0.0605468750, 0.1093750000, 0.6171875000, -0.1816406250, -0.7148437500, 0.1835937500, -0.1013183594, 0.0625000000, -0.1992187500, 0.1328125000, 0.1523437500, -0.1171875000, -0.4062500000, -0.0703125000, -0.3671875000, -0.2421875000, -0.0156250000, 0.2109375000, -0.0175781250, 0.3437500000, -0.4531250000, -0.3203125000, 0.1875000000, 0.0410156250, 0.1875000000, -0.3359375000, 0.1210937500, 0.3437500000, 0.1601562500, 0.0859375000, -0.3906250000, 0.1093750000, 0.3046875000, 0.1250000000, -0.0849609375, -0.4140625000, 0.2656250000, 0.3437500000, 0.2500000000, -0.0640869141, -0.3125000000, -0.4062500000, 0.2812500000, -0.0615234375, 0.2421875000, -0.0664062500, 0.0722656250, -0.3281250000, 0.1015625000, -0.3437500000, 0.3437500000, -0.4296875000, -0.1367187500, -0.0156250000, 0.3906250000, 0.1835937500, -0.3125000000, -0.2890625000, 0.1796875000, 0.3359375000, 0.0937500000, -0.3203125000, 0.1835937500, 0.1796875000, 0.1406250000, 0.1074218750, -0.0097656250, 0.3085937500, 0.0351562500, 0.1953125000, -0.0502929688, -0.1899414062, 0.2382812500, -0.6796875000, 0.1679687500, -0.2187500000, 0.3046875000, -0.2578125000, -0.4140625000, -0.0722656250, -0.1718750000, 0.2421875000, 0.1875000000, 0.2734375000, -0.1953125000, 0.3203125000, -0.0761718750, 0.0615234375, -0.3984375000, -0.0019531250, -0.0253906250, -0.0156250000, -0.2031250000, -0.0605468750, -0.3593750000, 0.2109375000, -0.2031250000, 0.2070312500, -0.2089843750, -0.3359375000, 0.0537109375, 0.1796875000, -0.1835937500, -0.2421875000, 0.2812500000, 0.0390625000, 0.6484375000, -0.3828125000, 0.1044921875, 0.1484375000, -0.1054687500, -0.0214843750, 0.1835937500, -0.6015625000, -0.1250000000, -0.2187500000, -0.2656250000, 0.2812500000, 0.2421875000, -0.4296875000, -0.0078125000, -0.0048828125, -0.0820312500, 0.0546875000, 0.1054687500, 0.0781250000, 0.0664062500, -0.6250000000, 0.1875000000, 0.1313476562, 0.0898437500, 0.0712890625, -0.5000000000, 0.1796875000, 0.2695312500, 0.1640625000, -0.3281250000, -0.0214843750, 0.2500000000, -0.2265625000, -0.1406250000, -0.0214843750, 0.1347656250, -0.2187500000, 0.0592041016, 0.2812500000, -0.4453125000, -0.0644531250, 0.2656250000, -0.0585937500, -0.3281250000, 0.3515625000, -0.2343750000, -0.0909423828, 0.0312500000, -0.3906250000, -0.4375000000, -0.4062500000, 0.0546875000, 0.3671875000, 0.1171875000, -0.0351562500, 0.1835937500, -0.0722656250, 0.3281250000, 0.0507812500, 0.0117187500, 0.0654296875, 0.0371093750, -0.2656250000, -0.2343750000, -0.3750000000, -0.2421875000, -0.0839843750, -0.1640625000, -0.1757812500, 0.2695312500, 0.3281250000, 0.0937500000, 0.2148437500, -0.2382812500, 0.3515625000, 0.0781250000, -0.1533203125, -0.3632812500, 0.2890625000, -0.3437500000, -0.1953125000, 0.1796875000, -0.2617187500, 0.0332031250, 0.0000000000, -0.2890625000, 0.0976562500, 0.3046875000, -0.0957031250, 0.1562500000, 0.1406250000, -0.0996093750, 0.0625000000, -0.0732421875, 0.3125000000, -0.4062500000, 0.2968750000, -0.2148437500, 0.2109375000, 0.2656250000, 0.2031250000, -0.2353515625, 0.0507812500, 0.1171875000, 0.3281250000, -0.1680908203, 0.2148437500, -0.0722656250, -0.5429687500, 0.3515625000, -0.0507812500, 0.3046875000, 0.1367187500, 0.1796875000, -0.5156250000, -0.3593750000, 0.1835937500, 0.2070312500, 0.0664062500, -0.0625000000, 0.2089843750, 0.1015625000, -0.4765625000, -0.2734375000, -0.4921875000, 0.0195312500, -0.3125000000, 0.2500000000, -0.3515625000, -0.1601562500, 0.1445312500, -0.2578125000, 0.0390625000, 0.3203125000, -0.2187500000, -0.3906250000, 0.2226562500, 0.0937500000, -0.0117187500, 0.1757812500, -0.0175781250, -0.2548828125, 0.1328125000, 0.1796875000, 0.3515625000, -0.3984375000, -0.2656250000, 0.1210937500, 0.0585937500, 0.0742187500, 0.3750000000, 0.2812500000, -0.5937500000, 0.0000000000, -0.4375000000, -0.2812500000, -0.1445312500, -0.2656250000, -0.3359375000, 0.3750000000, 0.0664062500, -0.2929687500, -0.0703125000, -0.2656250000, 0.1113281250, -0.0781250000, 0.1054687500, -0.6718750000, -0.4062500000, -0.3671875000, 0.2734375000, -0.1406250000, 0.0214843750, 0.2812500000, 0.3437500000, 0.3828125000, 0.0083007812, -0.5625000000, 0.1679687500, -0.0546875000, -0.8046875000, 0.1250000000, -0.4609375000, 0.3281250000, 0.1132812500, 0.0390625000, -0.2734375000, 0.0390625000, 0.1718750000, -0.3750000000, 0.3437500000, 0.0937500000, -0.2148437500, -0.0546875000, -0.3593750000, -0.3125000000, 0.1132812500, -0.0966796875, 0.2421875000, -0.4687500000, -0.1054687500, 0.2500000000, -0.5273437500, 0.5781250000, -0.0058593750, 0.3203125000, -0.3710937500, -0.1132812500, -0.1875000000, -0.1914062500, 0.5078125000, -0.2890625000, 0.1757812500, 0.0703125000, 0.1875000000, 0.0073242188, -0.6093750000, 0.2500000000, 0.3671875000, -0.0078125000, 0.2280273438, 0.1718750000, -0.7031250000, 0.3281250000, -0.1306152344, 0.3671875000, -0.4531250000, -0.4453125000, -0.6171875000, -0.4531250000, 0.1757812500, -0.0468750000, -0.8671875000, 0.5625000000, 0.2304687500, -0.0859375000, 0.0703125000, -0.0195312500, -0.1679687500, 0.2695312500, 0.2968750000, 0.0703125000, 0.3281250000, -0.4921875000, -0.3046875000, -0.4921875000, -0.4843750000, 0.1074218750, 0.0585937500, -0.2500000000, -0.3125000000, -0.1679687500, 0.3593750000, -0.2695312500, 0.2578125000, 0.2968750000, 0.1640625000, 0.1953125000, 0.4296875000, -0.2773437500, 0.3046875000, -0.1250000000, -0.2031250000, -0.5507812500, 0.1171875000, 0.0859375000, 0.3125000000, 0.3281250000, 0.2421875000, -0.3203125000, -0.2890625000, 0.0937500000, -0.2226562500, 0.2070312500, 0.1406250000, 0.1914062500, 0.1171875000, -0.0546875000, -0.3437500000, -0.0234375000, -0.3437500000, 0.2656250000, -0.3046875000, 0.0280761719, -0.3437500000, -0.0781250000, 0.2812500000, 0.2500000000, -0.4140625000, 0.3515625000, -0.3437500000, 0.2500000000, 0.3906250000, -0.0653076172, -0.2187500000, 0.2187500000, -0.1132812500, -0.1953125000, 0.3750000000, -0.0517578125, -0.0185546875, 0.3750000000, -0.1250000000, 0.4140625000, 0.1601562500, -0.0898437500, -0.4570312500, 0.0214843750, -0.3281250000, 0.0546875000, -0.3984375000, -0.5156250000, 0.2343750000, 0.0937500000, 0.1445312500, 0.2695312500, -0.2812500000, 0.1367187500, 0.2968750000, -0.1699218750, 0.2109375000, 0.0937500000, 0.0996093750, -0.3164062500, -0.4453125000, 0.3984375000, 0.1054687500, 0.2148437500, 0.0937500000, 0.1875000000, 0.3515625000, -0.0917968750, -0.1992187500, -0.2343750000, 0.0390625000, 0.1562500000, 0.1171875000, 0.0498046875, -0.2519531250, 0.2382812500, -0.2265625000, 0.4453125000, 0.1992187500, -0.7421875000, 0.2968750000, 0.4453125000, -0.2500000000, -0.3906250000, -0.3593750000, -0.1679687500, -0.1640625000, 0.1660156250, -0.4062500000, 0.3750000000, -0.0781250000, -0.5546875000, 0.0859375000, -0.2343750000};

#endif

#endif
